%YAML:1.0
svm: !!opencv-ml-svm
   svm_type: C_SVC
   kernel: { type:LINEAR }
   C: 1.
   term_criteria: { epsilon:1.1920928955078125e-007,
       iterations:2147483647 }
   var_all: 400
   var_count: 400
   class_count: 10
   class_labels: !!opencv-matrix
      rows: 1
      cols: 10
      dt: i
      data: [ 0, 1, 2, 3, 4, 5, 6, 7, 8, 9 ]
   sv_total: 45
   support_vectors:
      - [ -6.15847000e-008, 1.82741388e-007, 2.76672498e-008,
          1.03019246e-007, 2.65743125e-007, 1.10811413e-006,
          1.00632235e-006, 3.34836659e-005, 3.08537892e-005,
          8.25088646e-005, 7.75940352e-005, 7.15662318e-005,
          5.79203952e-005, 3.44473847e-005, 7.97816756e-006,
          7.14693942e-006, 1.59523843e-008, 0., 3.19047686e-008,
          5.53344996e-008, 1.63808409e-007, -8.82444965e-007,
          -9.86299256e-008, 1.17861953e-006, 1.48327058e-006,
          8.77187449e-006, 2.64703813e-005, 9.26606444e-005,
          6.67922941e-005, 5.29807476e-005, 4.90562670e-005,
          1.04691739e-004, 1.45847880e-004, 1.08516215e-004,
          3.38717946e-005, 1.12336284e-005, 7.72514886e-006,
          7.97619180e-008, 5.53344996e-008, 1.59523843e-008,
          3.54795645e-007, 1.01015758e-006, 7.61156230e-007,
          6.30880209e-007, 8.10378333e-006, 1.11964300e-005,
          1.53542962e-004, 9.98385076e-005, 4.69548431e-005,
          -7.73889224e-006, -4.25326325e-005, 8.40967987e-005,
          1.39135955e-004, 1.51221568e-004, 9.33563497e-005,
          1.07843543e-005, 7.82086317e-006, 7.02748139e-006, 0., 0.,
          -9.46624539e-007, 6.36100879e-007, 6.25213602e-007,
          3.49963193e-006, 8.12329927e-006, 5.55091538e-005,
          1.69691310e-004, 9.14004195e-005, -8.83301345e-006,
          -5.13847335e-005, -1.54610825e-004, -6.35440520e-005,
          1.31462468e-004, 1.65874619e-004, 8.81896049e-005,
          1.48514691e-005, 7.74110140e-006, 7.05514867e-006,
          4.78571529e-008, 4.36196359e-008, 7.15883459e-007,
          6.05331365e-007, -4.49302803e-007, 5.12514498e-006,
          1.18064600e-005, 5.28173914e-005, 1.64574507e-004,
          8.91875097e-005, -1.58745261e-005, -1.17220472e-004,
          -1.02261300e-004, -5.39374523e-005, 6.45111068e-005,
          1.63385630e-004, 8.81383166e-005, 1.82088243e-005,
          7.73786178e-006, 7.05514867e-006, 1.59523843e-008,
          5.53344996e-008, 8.32903737e-008, -4.17732657e-008,
          2.21936176e-007, 5.00015221e-006, 1.23597529e-005,
          3.65640190e-005, 1.63838806e-004, 5.91862008e-005,
          -2.28663121e-005, -1.17446121e-004, -1.26833445e-004,
          -6.01706342e-005, 5.37666783e-005, 1.66578146e-004,
          8.86369380e-005, 1.78280934e-005, 7.77300647e-006,
          7.05514867e-006, 0., 0., 4.12788296e-007, 5.88129126e-007,
          -1.17443903e-006, 6.44276815e-006, 1.46836965e-005,
          4.27014893e-005, 1.63291057e-004, 5.98361366e-005,
          -3.61845050e-005, -1.18243333e-004, -9.62084232e-005,
          -5.29977806e-005, 3.19643223e-005, 1.05706102e-004,
          8.75417900e-005, 1.80450588e-005, 7.72938620e-006,
          7.05938646e-006, 1.42573768e-007, 1.59523843e-008, 0.,
          1.11305644e-006, 2.91362113e-007, 5.71434794e-006,
          1.38402875e-005, 3.70116250e-005, 1.57103932e-004,
          5.84231711e-005, -3.87359578e-005, -1.17593008e-004,
          -9.61737096e-005, -5.26861731e-005, 3.02077588e-005,
          9.78214302e-005, 9.65564395e-005, 1.78264581e-005,
          7.80491064e-006, 0., 0., 7.12868840e-008, 2.76672498e-008,
          1.06091397e-006, 0., 5.85034923e-006, 1.46965849e-005,
          3.89673260e-005, 1.56023088e-004, 5.92665783e-005,
          -3.78737823e-005, -1.18108110e-004, -9.62068370e-005,
          -5.32364102e-005, 4.95666500e-005, 9.86828891e-005,
          9.59505924e-005, 1.77476195e-005, 7.77300647e-006,
          1.59523843e-008, 0., 0., 7.12868840e-008, 2.14616279e-007,
          -9.90358672e-007, 7.00903547e-006, 1.38402875e-005,
          3.91894719e-005, 1.56942871e-004, 4.52006752e-005,
          -3.88444932e-005, -1.18107673e-004, -9.66462248e-005,
          -5.23249400e-005, 5.27153170e-005, 9.87132080e-005,
          9.55270807e-005, 1.69178820e-005, 7.37843402e-006,
          2.76672498e-008, 9.89541320e-008, 2.76672498e-008,
          1.04707020e-007, 8.30017512e-008, 8.96811571e-007,
          5.89820638e-006, 2.09676327e-005, 5.49044235e-005,
          1.54574387e-004, 4.45649821e-005, -3.22028427e-005,
          -9.57666125e-005, -9.62912309e-005, -5.25042342e-005,
          6.14102319e-005, 1.00224206e-004, 9.50563699e-005,
          1.52427829e-005, 7.08705329e-006, 0., 1.59523843e-008, 0.,
          3.73256910e-007, -2.88570988e-007, 6.45782521e-008,
          7.63857497e-006, 2.01583407e-005, 5.58875108e-005,
          1.54246343e-004, 4.52546956e-005, -3.16280311e-005,
          -9.57820666e-005, -9.67057131e-005, -5.31982005e-005,
          6.43749954e-005, 9.93801514e-005, 9.56701551e-005,
          1.45260474e-005, 0., 7.12868840e-008, 0., 2.76672498e-008,
          -6.96149243e-007, 5.55714962e-007, 1.09485177e-006,
          9.05964498e-006, 2.14136107e-005, 3.48251306e-005,
          1.41633878e-004, 4.10622197e-005, -3.12967495e-005,
          -9.70838082e-005, -9.67073647e-005, -5.20684371e-005,
          6.42937157e-005, 1.04456834e-004, 9.58975434e-005,
          1.44512978e-005, 9.89541320e-008, 1.59523843e-008, 0.,
          4.36196359e-008, 1.18073160e-006, -2.03043893e-008,
          -3.25526912e-007, 9.62660579e-006, 2.09761165e-005,
          3.47996975e-005, 1.21791301e-004, 6.90757297e-005,
          -3.19361461e-005, -9.49396490e-005, -9.65167055e-005,
          -5.30807156e-005, 6.44267420e-005, 7.51750049e-005,
          7.34833084e-005, 1.46611410e-005, 0., 0., 0., 1.74478544e-007,
          1.25593658e-007, 3.02658862e-007, 1.32319167e-006,
          8.73848057e-006, 2.09305326e-005, 3.85702187e-005,
          1.32637288e-004, 7.16518989e-005, -3.15029138e-005,
          -9.66963853e-005, -9.57540833e-005, -5.32022204e-005,
          5.64271650e-005, 7.57242524e-005, 7.16837822e-005,
          8.19428715e-006, 0., 2.76672498e-008, 0., 4.78571529e-008,
          7.80658468e-007, -3.16086158e-007, 1.03597654e-006,
          1.61870121e-005, 2.08685888e-005, 3.80062447e-005,
          7.90249469e-005, 4.54137189e-005, -3.18248603e-005,
          -4.34184076e-005, -8.10942001e-005, -4.97203691e-005,
          6.01398824e-005, 8.13009246e-005, 9.16566350e-005,
          7.24657730e-006, 0., 9.89541320e-008, 0., 0., 2.25853313e-007,
          0., 6.42405098e-007, 1.67414419e-005, 2.09013415e-005,
          1.97251338e-005, 6.61891609e-005, 4.73700820e-005,
          -1.99334954e-005, -4.31787048e-005, -4.05652145e-006,
          -2.69811389e-005, 1.09799774e-004, 1.36362869e-004,
          9.00927189e-005, -3.14085526e-007, 0., 7.05514867e-006, 0., 0.,
          9.44593808e-007, 1.63608604e-007, 6.68740199e-007,
          6.04613297e-006, 1.95992579e-005, 2.12398045e-005,
          5.59857799e-005, 2.50153607e-005, 2.08173151e-005,
          -2.26590291e-005, 1.08970198e-006, 8.91326854e-005,
          1.29558844e-004, 1.26152212e-004, 8.54880200e-005,
          1.78364246e-007, 0., 7.05514867e-006, 0., 0., 2.87964099e-007,
          3.63312296e-007, 1.42753709e-006, 6.31272258e-007,
          1.23742702e-005, 1.94661843e-005, 3.54659569e-005,
          2.88232495e-005, 6.09576491e-005, 4.98857225e-005,
          9.53856033e-006, 9.53658819e-005, 1.08463486e-004,
          9.07482754e-005, 7.45208090e-005, -8.78432331e-007, 0.,
          7.05514867e-006, 0., 0., -1.74707509e-007, 4.13759892e-007,
          4.27874880e-007, 4.66997761e-007, 7.41877557e-006,
          2.21260907e-005, 2.33423307e-005, -3.00171105e-005,
          -1.77572492e-005, 1.62220622e-005, 5.24391180e-006,
          -4.52845507e-006, 9.58474811e-006, 7.48039820e-005,
          7.47874874e-005, 2.24552494e-007, 0., 7.05514867e-006, 0., 0. ]
      - [ 1.17538627e-006, -9.35898356e-007, -4.90979630e-007,
          3.56833311e-007, 5.76813045e-006, -1.23223117e-005,
          -1.51871791e-005, -3.83432052e-006, 1.66982154e-005,
          -3.30045964e-006, -1.86831112e-005, 7.52068536e-006,
          -1.54566333e-005, -3.05597277e-005, -2.79247670e-005,
          -2.67019686e-007, -2.01728014e-007, 3.60226949e-007,
          -4.15328202e-007, 1.20075654e-007, -9.43115026e-007,
          1.23415006e-007, 5.41419176e-008, 5.47099171e-006,
          1.69513260e-005, -2.64935388e-005, -4.06315994e-005,
          4.78419352e-005, -4.16266812e-006, -4.74438675e-005,
          -4.19313365e-005, -3.30429284e-005, 5.46010378e-005,
          1.57793056e-005, -2.54668521e-005, -8.41561723e-006,
          -7.68424854e-007, -1.74959709e-007, -2.03320653e-007,
          1.20075654e-007, 2.81343972e-007, 1.36321933e-006,
          1.26484474e-006, 1.23672735e-005, 4.10629946e-006,
          -3.81772152e-005, 5.60443732e-005, 1.51415061e-005,
          -2.21469672e-005, -3.08349590e-005, -2.46793797e-006,
          1.30826529e-005, 4.29203465e-005, 5.20923641e-005,
          3.73330549e-005, -2.46879499e-005, -3.78502909e-006,
          -1.00864007e-007, 8.30277997e-008, 1.23706272e-008,
          -1.16976605e-006, 6.57576038e-008, 7.70151928e-006,
          5.90444070e-005, -2.86242903e-006, -2.51536749e-005,
          4.64477998e-005, 2.46622335e-007, -3.01646669e-005,
          -1.28281181e-005, -7.17306830e-005, -2.88077572e-005,
          2.75887014e-005, 4.99949310e-005, -1.17626350e-005,
          -1.78205828e-005, -4.22162520e-006, 6.88473278e-008,
          -1.53684979e-007, 8.93210306e-009, 1.62809738e-006,
          -1.12271525e-008, 6.71071484e-006, 5.62670903e-005,
          2.87694602e-005, -1.54347399e-005, 5.69622607e-005,
          -2.05540455e-005, -1.79994749e-005, -4.86647441e-005,
          1.49427353e-006, -4.70625200e-005, -2.38045759e-005,
          1.42634926e-005, -3.87174769e-005, -3.35382647e-005,
          -6.32348974e-006, -3.70478475e-008, -2.01728014e-007,
          -2.03320653e-007, -2.03740854e-007, -4.85068597e-007,
          6.77065827e-006, 6.01605534e-005, 4.89574668e-005,
          8.63220921e-005, 1.48866442e-004, 7.19779273e-005,
          4.95963250e-005, -1.78161963e-006, -7.43109183e-007,
          -1.71058437e-005, -5.00266215e-005, 8.55394410e-006,
          -2.32353832e-005, -2.77863674e-005, -7.32485432e-006,
          -1.00864007e-007, -1.07705020e-007, 0., -2.63162207e-007,
          1.99990768e-006, 6.24086897e-006, 6.15269382e-005,
          6.74913317e-005, 1.24988306e-004, 1.87078549e-004,
          1.82057309e-004, 6.96142743e-005, -6.36411016e-007,
          -3.74963056e-005, -4.58400282e-005, -4.74603221e-005,
          -6.50503716e-005, -3.90898422e-005, -1.54179761e-005,
          -5.57033991e-006, 4.59799523e-008, 1.37694656e-007,
          -8.82761739e-008, -4.29125521e-007, 1.97883825e-008,
          6.58800263e-006, 6.23886954e-005, 6.83750550e-005,
          9.67170417e-005, 2.40410052e-004, 1.79978757e-004,
          8.96343117e-005, -6.84066208e-006, -8.67277922e-005,
          -7.29027815e-005, -9.64042119e-005, -4.61153904e-005,
          -2.51564543e-005, 9.38935136e-006, 3.66968015e-006,
          -3.70478475e-008, -1.00864007e-007, -1.37911854e-007,
          -2.40233845e-007, 8.49797914e-007, 6.78870492e-006,
          6.20651335e-005, 6.92446338e-005, 9.75746880e-005,
          2.37793356e-004, 1.80835632e-004, 9.11905227e-005,
          -5.30083198e-005, -1.26163577e-004, -1.22681260e-004,
          -1.23607839e-004, -1.39294643e-005, 2.11927309e-005,
          3.00518186e-005, 5.16325281e-006, 3.24967573e-007,
          1.20075654e-007, 1.02445959e-007, -1.91186487e-007,
          -4.48274136e-007, 6.31786179e-006, 6.34950411e-005,
          6.68466673e-005, 9.68091263e-005, 2.39829154e-004,
          1.80036033e-004, 6.38291021e-005, -1.12900416e-004,
          -1.74752393e-004, -2.25566590e-004, -9.85427105e-005,
          2.78247389e-005, 1.25867635e-004, 5.43673050e-005,
          7.55476913e-006, 2.40151309e-007, 0., 6.00378257e-007,
          -7.44696706e-007, -6.36362245e-007, 6.54718087e-006,
          6.19251587e-005, 6.94026821e-005, 1.30478031e-004,
          2.39449539e-004, 1.65656878e-004, 2.06259228e-005,
          -1.38120362e-004, -2.16033790e-004, -2.31338607e-004,
          -3.40522529e-005, 1.10718473e-004, 1.64248413e-004,
          6.53836178e-005, 1.00134721e-005, 2.40151309e-007,
          2.04891919e-007, 0., 2.89914908e-007, -7.96614700e-007,
          7.46214300e-006, 6.13280063e-005, 6.75531119e-005,
          1.37460476e-004, 2.34126244e-004, 1.20173114e-004,
          -4.61060154e-005, -1.70580155e-004, -3.11403099e-004,
          -1.69393577e-004, 3.10102114e-005, 2.08095109e-004,
          1.67989259e-004, 6.46699264e-005, 2.44401799e-005,
          1.68105908e-006, 7.87640488e-007, 3.60226949e-007,
          -2.96037143e-007, 4.97910321e-007, 7.19285617e-006,
          6.22441439e-005, 6.76047348e-005, 9.19649683e-005,
          2.00620358e-004, 5.88344774e-005, -6.68018620e-005,
          -2.58176704e-004, -2.35860425e-004, -1.18860647e-004,
          1.48787745e-004, 2.09433725e-004, 1.68575018e-004,
          5.17767221e-005, 3.26682093e-005, 4.08257210e-006, 0., 0.,
          1.64364826e-006, -1.27479757e-006, 5.44292834e-006,
          6.36308760e-005, 6.28678972e-005, 9.72098715e-005,
          1.42200399e-004, 1.45094600e-005, -1.20300596e-004,
          -2.42677808e-004, -1.76473346e-004, -3.22195738e-005,
          1.73624008e-004, 1.52323933e-004, 1.38520700e-004,
          4.53534776e-005, 1.35685486e-005, 1.08068082e-006, 0., 0.,
          -1.88660522e-006, 1.27086093e-006, 6.83387998e-006,
          5.84223926e-005, 4.67808059e-005, 8.08117475e-005,
          8.60325090e-005, 1.93178239e-005, -2.03940843e-004,
          -1.74839122e-004, -1.26292391e-004, 4.70915002e-005,
          1.74624656e-004, 1.52122084e-004, 1.37423092e-004,
          4.37716990e-005, 5.40340443e-006, 2.22521606e-007,
          1.02445959e-007, 0., 9.17808052e-007, -5.37774440e-007,
          7.44967747e-006, 5.80174674e-005, 2.29828602e-005,
          1.28982138e-005, -8.98592134e-006, -6.06702488e-005,
          -1.74633387e-004, -4.73243417e-005, 3.66115069e-006,
          5.06244651e-005, 1.54614972e-004, 1.42579302e-004,
          1.66042417e-004, 4.42135315e-005, 5.52348001e-006, 0.,
          1.02445959e-007, 3.60226949e-007, 5.17434096e-008,
          -5.67017764e-007, 6.82396558e-006, 5.56026753e-005,
          -2.46959826e-006, -5.41083718e-005, -2.74065442e-005,
          -5.60753761e-005, -1.19929595e-004, -5.92133874e-005,
          3.37713136e-005, -2.02576075e-006, 9.77405725e-005,
          1.30405009e-004, 1.15250288e-004, 3.33766075e-005,
          5.48643220e-006, 0., -7.40956949e-008, 1.20075654e-007,
          7.76927436e-007, -9.40628354e-007, -1.19581955e-007,
          1.36823228e-005, -3.34491197e-005, -1.30231449e-004,
          -9.20538660e-005, -7.16984941e-005, -1.91535146e-005,
          -4.73964501e-005, 6.64472755e-005, 8.02909708e-005,
          9.58146702e-005, 3.32160780e-005, 4.20286160e-005,
          1.59406154e-005, 5.16325281e-006, 4.80302617e-007, 0.,
          -3.70478475e-008, -2.84024253e-007, -4.23333574e-007,
          -5.22654261e-007, -1.35727078e-005, -3.02881126e-005,
          -1.49898449e-004, -2.15692504e-004, -1.00672805e-004,
          3.60502308e-005, 6.63004394e-005, 9.07653593e-005,
          5.78265717e-005, -3.10560125e-007, -7.13681438e-005,
          1.12352536e-005, -1.27772446e-005, -2.13223052e-006, 0.,
          3.23179108e-007, 1.66055599e-007, -5.40676069e-007,
          -9.10924200e-007, 9.99064653e-008, -5.11122516e-006,
          -2.97066817e-005, -1.34126632e-004, -1.62698678e-004,
          -7.93554282e-005, -2.02805604e-005, 9.09146183e-005,
          9.37689329e-005, 7.54924768e-005, -1.15775147e-005,
          -5.01064533e-005, 4.51165324e-005, -1.66415193e-005,
          -1.11143549e-007, -7.40956949e-008, 2.40151309e-007, 0. ]
      - [ 7.68922121e-007, -3.80726419e-006, 8.34813363e-007,
          2.91091487e-006, -2.08662277e-005, 1.18983571e-005,
          -2.19376321e-004, 2.18059620e-004, -1.08325643e-004,
          -5.20271133e-005, -5.66158160e-005, 1.53942910e-005,
          -1.90017134e-004, -5.00651484e-004, -9.86434825e-005,
          -3.89937159e-005, -1.77651764e-005, 1.18235384e-007,
          -3.53085881e-007, 1.31939260e-007, -5.73074885e-007,
          3.56123883e-006, -8.76145577e-007, 5.36375592e-006,
          1.27898666e-005, -1.97445712e-004, -1.15551200e-004,
          2.80600852e-005, -1.24442944e-004, -8.10709389e-005,
          -1.21084515e-004, -5.76010689e-006, -1.63328896e-005,
          -1.65792284e-004, -4.98175104e-005, -1.32515943e-005,
          -4.47430193e-006, 7.10543588e-007, 0., 2.62871168e-007,
          -1.82388192e-006, -1.03512355e-006, 1.27038663e-006,
          3.02266526e-005, 8.24245508e-005, -4.68827020e-005,
          2.53612350e-004, 1.43777448e-004, -9.16256540e-005,
          -2.01577190e-004, -1.25055099e-004, -9.76048977e-005,
          -3.39383223e-005, -1.01540936e-005, 4.47600796e-005,
          1.67164562e-005, 3.37751771e-005, 6.53622919e-006,
          -3.97689575e-007, -1.16921576e-007, 1.51934728e-006,
          3.46744446e-006, 4.63759807e-006, 5.02321927e-005,
          8.39806744e-005, 1.67378203e-005, 2.52918049e-004,
          -3.53459982e-005, 2.03965203e-004, 1.86836332e-005,
          -1.12467802e-004, -2.94958154e-004, 9.21739775e-006,
          1.67937265e-004, 1.12475558e-004, 5.26874974e-005,
          3.43459978e-005, 5.23183326e-006, 5.76066661e-008,
          4.67128331e-007, 4.74818279e-007, 1.48388426e-006,
          1.25243298e-006, 4.93320113e-005, 9.60713296e-005,
          6.01680404e-005, 2.27947196e-004, 2.28838020e-004,
          5.97678991e-005, -1.04541548e-004, -2.03088493e-004,
          -9.73587303e-005, 5.03908814e-005, 2.09301536e-004,
          1.54616180e-004, 6.48654895e-005, 3.46152992e-005,
          7.10447875e-006, 0., -4.10692564e-007, -7.11357688e-006,
          -9.04563421e-007, 6.81852043e-006, 5.51553239e-005,
          9.50212270e-005, 6.32710580e-005, 2.17524983e-004,
          2.65170034e-004, -5.23355557e-005, -1.75913927e-004,
          -2.76475155e-004, -6.62552193e-005, 8.39938220e-005,
          2.37493208e-004, -1.20529614e-004, 8.78378414e-005,
          3.40832703e-005, 6.12553640e-006, -3.23275202e-007,
          2.04257162e-007, -1.15618388e-006, 3.49600691e-006,
          1.54236909e-006, 5.16302753e-005, 1.06111365e-004,
          9.67583692e-005, 2.03530304e-004, 2.37037355e-004,
          -1.07154672e-004, -2.37609216e-004, -2.64336268e-004,
          -1.43781101e-004, 6.07066140e-005, 1.63051533e-004,
          1.81882322e-004, 9.32505573e-005, 3.44354303e-005,
          6.43410021e-006, 2.63878519e-007, -2.05346282e-007,
          -1.02858735e-006, -1.63261848e-006, 5.10192285e-006,
          5.69556432e-005, 1.06559484e-004, 6.26580077e-005,
          2.06266850e-004, -1.80112533e-004, -9.96696617e-005,
          -2.80245265e-004, -3.56689154e-004, -5.07505785e-004,
          -1.76164031e-005, 3.34503784e-005, 1.59366624e-004,
          7.59729228e-005, 2.18587393e-005, 1.42980014e-006,
          -3.08563983e-007, 5.76066661e-008, -1.91386653e-006,
          2.41729322e-006, -1.88906100e-007, 5.53594182e-005,
          1.09911678e-004, 5.67895077e-005, 2.01880961e-004,
          -1.36811199e-004, -3.88877990e-004, -5.88986732e-004,
          -5.27437776e-004, -4.68617771e-004, -5.71202108e-005,
          1.94146167e-004, 1.45788523e-004, 5.33583006e-005,
          1.77459642e-005, 7.55387362e-008, -4.10692564e-007,
          8.93782186e-008, -6.42717282e-007, 1.57192787e-007,
          3.65821415e-006, 5.27246157e-005, 1.08744331e-004,
          5.65316295e-005, 2.00930648e-004, -1.27693653e-004,
          -3.42219340e-004, -4.44545643e-004, -4.43885394e-004,
          -3.57563375e-004, -9.29220914e-005, 1.39822267e-004,
          1.28423606e-004, -1.75749665e-005, 2.06634377e-006, 0., 0.,
          -3.08563983e-007, -7.03885121e-007, -6.14749297e-006,
          1.27199871e-006, 5.14273634e-005, 1.07065942e-004,
          5.86527131e-005, 2.03939664e-004, -1.81905663e-004,
          7.48712118e-005, 1.25904135e-005, 4.66081474e-007,
          -1.56676557e-004, -1.14241893e-005, -6.28338239e-005,
          4.57282404e-005, -8.21122194e-006, 2.77290792e-006,
          1.02128581e-007, -1.30896652e-007, -2.05346282e-007,
          -3.26856508e-007, 3.77875523e-007, -2.98085797e-006,
          5.21198453e-005, 1.10694629e-004, 3.64895641e-005,
          1.67055376e-004, 2.01571675e-005, 7.33704946e-005,
          1.60969594e-005, -3.40488100e-006, -7.45146463e-006,
          5.67420320e-005, -3.50157716e-005, 4.66890597e-005,
          -8.67458130e-006, 4.22417133e-006, -2.05346282e-007,
          2.68134642e-007, 0., 6.38073800e-007, -1.70496571e-006,
          2.63656671e-006, 5.79811203e-005, 1.07956723e-004,
          2.88273950e-005, 1.78924340e-004, 1.63096614e-004,
          7.87118406e-005, 1.02271797e-005, 1.88789613e-006,
          7.73957217e-005, 4.70048071e-005, -3.45816225e-005,
          4.74597946e-005, -1.94830463e-005, 2.30977648e-007,
          -3.09653103e-007, 0., 0., -6.79842287e-007, -3.95469488e-006,
          2.74138415e-006, 6.04767883e-005, 1.20155237e-004,
          -5.07629411e-005, 6.32871306e-005, 5.90846757e-005,
          6.50762813e-005, 1.13873575e-005, -2.24450632e-005,
          6.28024573e-005, 7.19223608e-005, -4.75749221e-005,
          -2.53221893e-004, -3.45780863e-005, -3.38618815e-006,
          4.08514325e-007, -3.08563983e-007, -2.05346282e-007,
          -1.44616092e-006, 1.26428245e-006, 4.87193347e-006,
          6.14493110e-005, 6.78174983e-005, -4.94062660e-005,
          2.90068510e-005, 1.15801893e-004, 1.16245565e-005,
          -1.40131961e-005, -3.78746336e-005, 5.97878425e-005,
          -3.99245582e-005, -4.20406468e-005, -2.40546680e-004,
          -3.94071103e-005, -9.59057706e-006, 8.93782186e-008,
          2.93635367e-007, 0., 4.01217932e-007, -2.48120318e-006,
          2.91887932e-006, 6.14362652e-005, 1.07943677e-004,
          -5.10521568e-005, -5.85824018e-005, -1.91852087e-004,
          -2.87450257e-005, 1.35983128e-005, -2.18880268e-005,
          8.16976317e-005, -4.35214497e-005, -2.55299256e-005,
          -7.02256584e-005, -4.09723107e-005, -9.38414178e-006,
          -4.10692564e-007, 1.91506800e-007, 0., -1.80317090e-006,
          1.12564237e-006, 4.21554233e-007, 5.73948601e-005,
          9.26952125e-005, -1.01926962e-004, -4.46776467e-005,
          -8.78831925e-005, 9.29345624e-005, 3.15951438e-005,
          -1.08172098e-005, 5.47443233e-006, 1.73797762e-005,
          9.24641029e-007, -7.83482392e-006, -6.87602660e-005,
          -9.44376279e-006, -1.16921576e-007, -2.05346282e-007,
          2.98106819e-008, 8.26172595e-007, -4.51743887e-007,
          -8.29831151e-007, 3.57690369e-005, 8.75151891e-005,
          -2.29944009e-004, -2.44834519e-005, -1.42768786e-005,
          2.23415700e-005, -2.04187145e-005, -2.53783110e-005,
          7.93637300e-005, 6.08056689e-005, -7.78684844e-005,
          -5.47550553e-006, -4.37428534e-005, -4.60140063e-006,
          2.88033331e-008, -5.56417490e-007, 5.96213638e-008,
          2.42952569e-006, -5.39800880e-008, 1.73570061e-006,
          7.98614565e-006, 5.47107993e-005, -3.34736163e-004,
          -1.25372579e-004, -1.38557552e-005, 8.13036331e-006,
          1.27382533e-004, 1.32824134e-004, 2.88205974e-005,
          3.14485624e-005, -6.54871328e-005, 3.33511452e-005,
          -2.67224073e-006, 0., 0., -3.51071179e-007, 1.15213332e-007,
          -8.43734767e-007, 3.16035243e-006, -7.52723537e-008,
          5.63148035e-007, -2.81638762e-007, -5.79270818e-005,
          -3.65208871e-005, 1.72112603e-004, 3.14717217e-005,
          2.79352127e-004, 2.23342577e-004, 1.36048315e-004,
          -6.43078238e-005, -5.50163604e-005, 1.80751413e-005,
          1.99209853e-006, -5.57424812e-007, 1.18235384e-007,
          5.76066661e-008, -2.05346282e-007 ]
      - [ 1.20550521e-006, 2.66097231e-007, 1.63862595e-007,
          2.42318350e-007, 2.02878482e-006, 4.99181624e-005,
          9.74425784e-005, 1.25235456e-004, 1.36499279e-004,
          1.61583477e-004, 1.55963426e-004, 1.37536088e-004,
          -4.69387351e-006, -1.24991522e-004, -6.01097672e-005,
          -3.21765469e-007, 0., 0., 0., 0., 3.95881614e-007,
          6.05711875e-007, 3.57663964e-007, 3.68565429e-006,
          1.29693262e-005, 6.24893946e-005, 1.08768123e-004,
          2.04173222e-004, 1.17676718e-004, 9.11574025e-005,
          3.43023530e-005, 8.33324739e-005, 4.52154236e-005,
          1.71923766e-005, -3.99293458e-005, 4.57412000e-007, 0., 0., 0.,
          0., -4.62920724e-007, 8.81317703e-007, 8.33977140e-007,
          9.88509419e-006, 2.45501924e-005, 6.56698830e-005,
          2.05632241e-004, 1.71485124e-004, 8.09062913e-005,
          4.07607913e-005, -5.24617280e-006, 1.21820394e-005,
          4.08502165e-005, 6.73439645e-005, 2.07483517e-005,
          -1.07814508e-007, 0., 0., 0., 0., 1.77397709e-007,
          7.99309703e-007, 1.95082771e-006, 1.60011950e-005,
          2.39007859e-005, 8.46745097e-005, 2.11518040e-004,
          1.36467977e-004, 6.37354751e-005, -1.69255891e-005,
          -1.48346691e-004, -1.15673996e-004, 3.32891686e-005,
          7.16200375e-005, 2.42437782e-005, 2.69806264e-006, 0., 0., 0.,
          0., 2.76882105e-007, 6.10978532e-007, 1.05078175e-006,
          1.54621139e-005, 2.48948509e-005, 8.26327960e-005,
          2.08857076e-004, 1.04182451e-004, 2.23149218e-005,
          -1.00393736e-004, -1.93535030e-004, -1.61742923e-004,
          -2.62172762e-005, 7.08987427e-005, 4.43472345e-005,
          4.17719593e-006, 0., 0., 0., 0., 2.33457271e-007,
          3.65407118e-007, 2.16469653e-006, 1.56658516e-005,
          2.36490087e-005, 8.42966401e-005, 2.08029072e-004,
          9.05496199e-005, 2.18947443e-005, -1.44714315e-004,
          -2.21911658e-004, -1.71249907e-004, -3.71503920e-005,
          8.36940671e-005, 4.59004659e-005, 1.14042559e-005, 0., 0., 0.,
          0., -3.79735326e-007, 1.72555360e-006, 1.27351234e-006,
          1.53724523e-005, 2.49709283e-005, 8.26434334e-005,
          2.02936877e-004, 8.91866657e-005, -4.00165554e-005,
          -1.89807237e-004, -2.21133654e-004, -1.41573662e-004,
          -3.18252496e-005, 1.90383489e-005, 4.65938247e-005,
          1.25260849e-005, 0., 0., 0., 0., 1.35250261e-007,
          5.21337938e-007, 1.47067760e-006, 1.53141100e-005,
          2.36864234e-005, 6.33389936e-005, 1.52963607e-004,
          8.40667053e-005, -7.72037747e-005, -2.11545601e-004,
          -1.77641268e-004, -1.17611497e-004, -1.80525130e-005,
          1.46669909e-005, 4.59447001e-005, 1.34882293e-005, 0., 0., 0.,
          0., -3.26449680e-007, 1.28641318e-006, 7.77607113e-007,
          1.57595605e-005, 2.41553025e-005, 6.31367584e-005,
          1.52406617e-004, 6.80815137e-005, -1.02514314e-004,
          -1.63306249e-004, -1.17767115e-004, -5.27834927e-005,
          -9.11360166e-006, 1.37833586e-005, 4.56458401e-005,
          1.31921161e-005, 0., 6.32132213e-008, 0., -9.39207609e-008,
          -8.76324577e-008, -4.67803034e-007, 1.14175258e-007,
          1.62692086e-005, 2.28446079e-005, 4.65304438e-005,
          1.44281046e-004, 2.57727515e-005, -1.07139706e-004,
          -1.37589421e-004, -5.56183622e-005, -9.37267614e-005,
          -3.58994221e-005, 1.33442245e-005, 4.62850476e-005,
          1.64529174e-005, 4.12684074e-007, -2.51054729e-007, 0., 0.,
          -3.55800211e-007, -2.96994216e-007, 5.21067477e-007,
          1.48495174e-005, 2.47902426e-005, 3.95578136e-005,
          1.17281728e-004, -1.12110492e-005, -9.01559615e-005,
          -7.46735168e-005, -3.97314252e-005, -8.58253406e-005,
          -5.83150613e-005, 2.29952984e-005, 2.73371370e-005,
          1.89845105e-005, 1.42229749e-006, 0., 6.32132213e-008,
          -2.51054729e-007, -2.56533269e-007, -6.44396835e-007,
          1.35902815e-006, 1.43147199e-005, 2.34188192e-005,
          3.58583675e-005, 6.93640250e-005, -5.49694778e-005,
          -7.01623503e-005, -3.90882524e-005, -2.57741467e-005,
          -8.65229158e-005, -5.67624702e-005, 1.96312303e-005,
          4.60526826e-005, 1.93799933e-005, 8.88581383e-007,
          -3.76582108e-007, 9.48198320e-008, 0., -2.97080646e-007,
          -1.53263073e-007, 1.01418550e-006, 1.52879238e-005,
          -5.67538018e-006, 1.09552423e-006, 4.58924660e-005,
          -7.03590122e-005, -4.66200545e-005, 3.92985925e-007,
          -2.69750726e-005, -8.95237536e-005, -5.53504105e-005,
          1.68784863e-005, 4.61051277e-005, 1.43363504e-005,
          6.32132185e-007, 0., 0., -1.25527365e-007, 3.49910550e-007,
          -5.46172316e-007, -6.99695931e-007, 1.55983671e-005,
          -1.63818058e-005, -8.40075791e-006, 9.04971148e-006,
          -2.09140471e-005, -1.67392318e-005, 7.79897618e-006,
          -3.69257068e-005, -9.76788870e-005, -6.89072112e-005,
          -1.28863303e-005, 3.37999845e-005, 2.86788645e-006,
          -3.76582108e-007, 0., -2.51054729e-007, -2.51054729e-007,
          -4.03518889e-008, 1.00008356e-006, 1.24582789e-006,
          1.49259768e-005, -2.62096764e-005, -5.17953449e-005,
          -1.15801040e-005, -4.37011331e-005, -4.70257473e-005,
          -3.37162819e-005, -5.63631329e-005, -1.35361857e-004,
          -7.36849324e-005, -5.52282618e-005, 1.46188595e-005,
          -4.67962673e-005, -4.89556760e-006, -4.70502869e-007,
          3.16066107e-008, 0., 1.87759767e-007, -7.41415533e-007,
          1.02409024e-006, 9.19796821e-006, -3.14488716e-005,
          -8.09708581e-005, -6.70750233e-005, -9.07916001e-006,
          -1.07003485e-004, -9.69672474e-005, -1.44024947e-004,
          -1.65744394e-004, -7.47568411e-005, -5.73038997e-005,
          -3.10218638e-005, -4.38428287e-005, -5.02109469e-006, 0.,
          3.16066107e-008, -2.51054729e-007, 6.14484236e-007,
          -6.46271189e-007, 6.09493497e-007, 1.11882100e-005,
          -2.68991953e-005, -5.61046181e-005, -3.82776379e-005,
          3.00020838e-006, -7.47432059e-005, -6.68647263e-005,
          -5.50999066e-005, -7.50626205e-005, -4.55145673e-005,
          -3.09041061e-005, -4.56640591e-005, -7.86199325e-006, 0., 0.,
          0., 0., 1.55562461e-008, 1.62018509e-007, -7.35837205e-007,
          1.04505252e-005, 7.95816140e-006, -4.02773694e-005,
          5.78189865e-005, 7.29000240e-005, 7.73977081e-005,
          5.80636879e-005, 7.64967044e-005, 3.07206028e-005,
          -3.22632195e-006, -4.04653656e-005, -5.78937397e-005,
          -3.32455716e-006, 0., 0., 0., 0., 6.47373838e-007,
          -5.30587329e-007, 1.22971517e-006, 1.28869340e-006,
          1.80498992e-005, -1.78811679e-005, 2.89391446e-005,
          8.19662964e-005, 1.69209976e-004, 1.73141161e-004,
          1.42150791e-004, 7.52403357e-005, -4.15049144e-005,
          -1.02682563e-004, -3.05509238e-005, 9.14462191e-007, 0., 0.,
          0., 0., -5.61112302e-007, 3.98619761e-007, 5.21380287e-007,
          8.97824677e-008, 1.06701054e-006, 1.54023055e-005,
          3.14571116e-005, 1.09768072e-004, 1.46988779e-004,
          2.06192228e-004, 1.95173867e-004, 8.57913910e-005,
          -6.32259471e-005, -1.10335503e-004, 5.53004538e-005,
          -3.01374925e-008, 0., 0., 0., 0. ]
      - [ 8.53955783e-007, -1.72621492e-006, -8.41620022e-007,
          -6.89368317e-005, -8.09153862e-005, -6.39274294e-005,
          1.78942300e-005, -4.75230809e-005, 3.39339886e-006,
          2.38916953e-004, 8.65245092e-005, 2.42162860e-004,
          1.23640610e-004, -1.91241168e-004, -2.67309253e-004,
          -6.70308873e-005, -1.11463465e-004, -8.16440152e-005,
          2.25217988e-007, -5.34000378e-007, -2.21527262e-006,
          -1.34412358e-006, 3.91571439e-006, -3.45580452e-006,
          -5.87281538e-005, -3.35584737e-005, -1.19021250e-004,
          1.72118860e-004, 1.23599413e-004, 5.13311352e-005,
          -5.76099701e-005, 1.03679697e-004, 2.42093898e-004,
          3.78816476e-005, -1.70932806e-004, -2.21991850e-005,
          -2.23720417e-005, -7.84252625e-005, -3.78634724e-007,
          6.13104817e-007, -1.32528930e-006, 5.36171342e-007,
          -5.59747650e-006, 6.97484211e-006, -2.04062235e-005,
          -1.25009858e-004, 1.01281374e-004, 4.87808575e-005,
          2.28749504e-005, -2.18605692e-005, -7.01050740e-005,
          -5.71915280e-006, 1.04248022e-004, 5.32270917e-007,
          1.49719795e-004, 9.47398876e-005, 8.26910255e-005,
          -8.41092060e-006, -5.45519924e-007, 1.51138963e-007,
          2.81623214e-009, -8.13003908e-007, 4.99721591e-006,
          1.12512980e-005, -1.21650037e-005, -6.68705543e-005,
          1.83564742e-004, 6.31446237e-005, -2.06055538e-005,
          -8.26743926e-005, -2.05250224e-004, -9.98911273e-005,
          2.36828128e-004, 3.19711224e-004, 1.70477244e-004,
          1.67810722e-004, 1.06585809e-004, -3.61862362e-006,
          3.15831159e-007, 1.31132856e-006, -2.80690188e-007,
          -2.14434934e-007, 1.36620110e-006, 2.34243907e-005,
          -1.60621403e-006, 6.88151295e-006, 1.86735706e-004,
          8.53228048e-005, 1.47431070e-004, -9.75657804e-006,
          -8.46250987e-006, 6.64971521e-005, 2.61454697e-004,
          4.74706118e-004, 2.47580669e-004, 1.98007750e-004,
          1.08378466e-004, 2.78752395e-006, -2.46635835e-007,
          -1.30120304e-006, -1.24794872e-006, 2.02235441e-007,
          4.26884435e-006, 1.96372621e-005, 1.11776035e-006,
          6.00676731e-006, 1.81213341e-004, 4.71424537e-005,
          4.21751938e-005, -4.38500820e-006, -1.41714054e-005,
          2.03043692e-005, 3.08662857e-004, 4.97693662e-004,
          2.32355800e-004, 1.49271887e-004, 7.62928103e-005,
          -1.04536650e-006, 1.96225027e-008, 4.98963004e-007,
          -1.45006922e-007, -1.23599034e-006, -6.95169433e-007,
          2.16974295e-005, 8.47970568e-006, 2.16416356e-005,
          8.82510067e-005, 8.48778836e-006, -4.75354645e-005,
          -6.66799460e-005, -1.55864749e-004, -4.10584871e-005,
          1.87197889e-004, 4.13921371e-004, 2.01329662e-004,
          8.39541972e-005, 3.67241155e-005, 8.85194140e-007,
          1.07285996e-006, 1.23630912e-007, -1.65850440e-006,
          7.33353261e-007, 2.04013460e-007, 2.38928296e-005,
          -1.94251588e-005, -7.33796041e-005, 3.21526204e-005,
          -6.79783479e-005, -2.28120916e-004, -3.06769070e-004,
          -2.74737162e-004, -1.94232111e-004, 8.34523016e-005,
          2.92749231e-004, 2.50987097e-004, 1.04172359e-004,
          1.03462908e-005, -6.99215670e-005, 2.37771857e-007,
          6.18565423e-007, 1.05928200e-008, 1.82661086e-006,
          5.08650373e-007, 2.19122248e-005, -1.15602961e-005,
          -6.03835324e-005, 1.07847700e-004, -7.08832376e-005,
          -3.15469282e-004, -4.29135311e-004, -4.53237823e-004,
          -2.99957668e-004, -3.53566575e-005, 1.98266120e-004,
          1.96906345e-004, 1.28520143e-004, -1.28082047e-006,
          -7.08576408e-005, -1.21567055e-007, -1.06437525e-007,
          -3.18972275e-006, 1.30242915e-006, 2.12258260e-006,
          1.89029033e-005, -8.20100649e-006, -3.92836810e-005,
          1.31646637e-004, -2.60589259e-005, -2.73409300e-004,
          -3.42329993e-004, -3.34674609e-004, -3.40146711e-004,
          -1.41774479e-004, 8.44560709e-005, 6.47148336e-005,
          6.28445559e-005, -2.85585543e-006, -7.08268344e-005,
          6.56841451e-007, 4.87886723e-007, 4.22757665e-007,
          6.66996243e-007, -1.46790001e-006, -4.44172183e-005,
          1.00076075e-004, 1.02253551e-004, 1.46501130e-004,
          -8.91050950e-005, -1.38586882e-004, -8.14536616e-005,
          -8.80550579e-005, -2.11507795e-004, -9.86606392e-005,
          -9.65186118e-005, 1.68460756e-005, 9.23833704e-006,
          -6.82458221e-006, -7.08157604e-005, 8.22037691e-007,
          -1.33227630e-007, -2.97293695e-007, 1.19072027e-007,
          7.41837425e-007, 2.17232773e-005, 1.62286684e-004,
          2.83699163e-004, 3.92066082e-004, 9.36902579e-005,
          8.36463369e-005, 1.48094423e-005, -2.25747481e-005,
          -1.80914139e-005, -3.93459377e-005, -8.65294569e-005,
          2.81843513e-005, 3.67724278e-005, -6.37551420e-005,
          -7.04917256e-005, -1.70736541e-007, -3.01559773e-008,
          -1.57402127e-008, 2.51399683e-006, 2.68081908e-006,
          4.23203419e-005, 1.75161971e-004, 2.93081539e-004,
          5.09518140e-004, 1.73521272e-004, 1.35445356e-004,
          2.59337721e-005, -8.03616103e-007, 1.66187438e-005,
          5.74162732e-005, -3.02895969e-005, -4.87334837e-005,
          1.80504285e-005, -6.40601211e-005, -7.03182232e-005, 0.,
          2.03876212e-007, 1.99796841e-006, 2.39616753e-007,
          1.25164661e-006, 5.27289776e-005, 1.84172910e-004,
          2.55133869e-004, 3.47469497e-004, 1.61145683e-004,
          7.22586265e-005, 3.93556111e-005, -4.28306720e-007,
          2.05147007e-005, 1.08551394e-004, -5.78169565e-005,
          -1.06491621e-004, -2.59885201e-005, -7.41299809e-005,
          -7.03165424e-005, 1.51348317e-007, 1.08365475e-006,
          -2.58526416e-006, -8.95535720e-007, 8.38283904e-006,
          5.76674283e-005, 1.35582042e-004, 8.85128757e-005,
          1.32266025e-004, 1.10597102e-004, 5.04704003e-005,
          2.84305079e-005, -8.59429347e-005, -4.78640140e-005,
          -5.95291312e-005, -1.10020155e-004, -9.87480089e-005,
          -7.37640294e-005, -8.67211784e-005, -7.11255489e-005,
          4.92240531e-007, 1.23787459e-007, 1.98730527e-006,
          2.57212598e-008, 2.06394066e-006, 1.14857045e-004,
          1.06546824e-004, -3.72818504e-005, -7.17570438e-005,
          -6.75123388e-008, -2.20011807e-005, -8.01080569e-006,
          -2.03210846e-004, -1.47716055e-004, -9.52208284e-005,
          -1.24196333e-004, -1.25768740e-004, -6.42683590e-005,
          -8.62572779e-005, -7.02690813e-005, 2.58518725e-007,
          -3.74368568e-007, -1.73524302e-006, -1.06709660e-006,
          2.48463402e-006, 1.01288970e-004, 7.35438880e-005,
          -4.98089612e-005, -2.78576099e-005, 6.48290588e-005,
          -1.00656689e-004, -1.34619142e-004, -1.41768134e-004,
          -1.27373933e-004, -4.70175692e-005, 9.47979570e-005,
          -3.05526410e-005, -1.19874785e-004, -8.61329463e-005,
          -1.43641819e-005, 2.18519673e-008, 2.33848194e-008,
          2.89762670e-006, 1.95657321e-006, 5.88915327e-007,
          2.30667629e-005, 6.08696682e-005, -2.45701654e-006,
          4.71590211e-005, -4.45463193e-005, -7.47276354e-005,
          -2.76265541e-006, -7.40877440e-005, 6.81765086e-005,
          9.11595635e-005, -5.14606436e-005, -2.57801112e-005,
          -1.02697508e-004, -1.01969301e-004, -2.44416806e-005,
          -1.23560241e-007, 0., -2.77198433e-006, 2.00146204e-007,
          2.50720018e-006, 3.60870263e-006, 2.49305758e-005,
          -4.92692743e-006, -6.89480294e-005, -1.03497412e-004,
          1.05662686e-004, 1.21486868e-004, 1.16761359e-004,
          1.13128757e-004, 7.74915970e-005, -3.44632736e-006,
          -1.93491760e-005, -1.03156424e-004, -1.09069253e-004,
          -2.43279646e-005, -5.08541405e-008, 2.03992002e-007,
          8.38408710e-007, 3.28412369e-007, 6.41183817e-007,
          -2.12204009e-006, -7.84612130e-005, -1.10240595e-004,
          -9.95755763e-005, 1.75012559e-007, 6.58141362e-005,
          1.42087738e-004, 5.56658124e-005, 1.27861349e-004,
          8.87726674e-006, -1.66819391e-005, 3.01744822e-005,
          -1.08901470e-004, -1.09095046e-004, -2.44416806e-005,
          1.33515357e-007, 5.58289237e-009 ]
      - [ -3.83643084e-007, -9.03789612e-007, -6.23386939e-007,
          -1.48143826e-007, 8.81954122e-007, -2.57521805e-007,
          8.74199486e-006, 6.21992658e-005, 1.13035712e-004,
          1.70590036e-004, 4.29193169e-005, -2.56121275e-005,
          -2.23919396e-005, 4.68072176e-005, 1.00926241e-004,
          7.82454154e-005, 8.88050295e-007, 1.15652824e-007, 0.,
          6.62942114e-007, -9.55286978e-008, -3.19980643e-007,
          6.41753104e-007, 1.52485740e-008, -1.85619342e-006,
          1.04821111e-005, 5.53747122e-005, 3.01121443e-004,
          2.14976259e-004, 6.11184441e-005, 1.91365089e-005,
          8.40271096e-005, 2.09899212e-004, 1.85571233e-004,
          1.19506214e-004, 1.02628212e-004, 7.63240896e-005,
          2.66415100e-006, 4.46781115e-007, 3.93771074e-007,
          3.90039929e-007, 4.07964542e-008, -3.88613131e-007,
          -2.50921801e-007, 8.71481279e-006, 2.65646358e-005,
          2.65482406e-004, 2.16676955e-004, 7.25649297e-005,
          -4.05200954e-005, -9.02526590e-005, 1.46039034e-004,
          2.32983264e-004, 2.19769601e-004, 1.68155500e-004,
          1.04958926e-004, 1.02756319e-004, 6.81082456e-005,
          2.16160998e-007, 7.71018875e-008, 2.12654871e-008,
          -1.76263597e-007, 3.11409053e-006, 1.12785801e-006,
          7.38605422e-006, 1.09698572e-004, 2.92931101e-004,
          1.18307908e-004, -7.50975596e-005, -2.69265322e-004,
          -1.47054030e-004, 1.04569415e-004, 2.61174486e-004,
          2.92637706e-004, 1.53982372e-004, 1.12615286e-004,
          1.03403421e-004, 6.81925740e-005, 0., 9.72381713e-007,
          7.01224792e-007, -1.21436108e-006, 6.90390436e-007,
          4.43609906e-006, 1.32904879e-005, 1.32061919e-004,
          2.35811618e-004, 7.51398766e-005, -1.99644666e-004,
          -2.76430015e-004, -4.55657973e-005, 4.86686404e-005,
          2.18173707e-004, 3.02300090e-004, 1.62969431e-004,
          1.18092954e-004, 1.03118757e-004, 6.92196845e-005, 0.,
          4.46781115e-007, -9.13335782e-007, -1.76180102e-008,
          -9.86106102e-007, 4.84785187e-006, 1.96764740e-005,
          9.45217180e-005, 1.52965935e-004, 2.84897078e-006,
          -2.85992719e-004, -1.75977926e-004, -8.13020451e-005,
          2.31512568e-005, 2.00141716e-004, 3.02901259e-004,
          1.62865603e-004, 1.16614072e-004, 1.03951395e-004,
          6.83316321e-005, 3.85509438e-008, 3.55220124e-007,
          1.72518639e-007, -1.31516174e-007, -1.09706070e-006,
          3.99438750e-006, -1.36691133e-005, 5.31191690e-005,
          1.15230265e-004, -4.14224342e-005, -2.26301956e-004,
          -1.62931639e-004, -9.42122642e-005, -4.68861108e-005,
          1.09069522e-004, 2.21067399e-004, 1.64098150e-004,
          1.16314390e-004, 1.03295686e-004, 6.79306322e-005,
          1.32588423e-006, 0., 3.37317886e-007, -6.05763830e-007,
          1.10601127e-006, -1.19460424e-006, -6.06428803e-005,
          2.78626121e-005, 5.41350310e-005, -6.57059500e-005,
          -1.79050476e-004, -1.87797632e-004, -1.67044855e-004,
          -1.40781922e-004, 3.86494357e-005, 1.37170762e-004,
          2.41606525e-004, 1.16989620e-004, 8.23215232e-005,
          2.48654078e-006, 1.77610062e-007, 4.46781115e-007,
          -4.45115973e-007, 1.36569611e-006, -8.07978267e-007,
          -2.39368092e-005, -6.45695836e-005, 2.84095349e-005,
          2.90747812e-005, -1.15434423e-005, -2.16367611e-004,
          -1.94937777e-004, -1.70019688e-004, -1.88149090e-004,
          -2.76626997e-005, 8.32576043e-005, 1.69692634e-004,
          1.05908017e-004, 7.44681238e-005, -3.34155374e-007,
          -2.30253363e-007, -5.80794790e-007, -1.83157340e-006,
          9.54118562e-008, 4.71786194e-007, -2.60477173e-005,
          -1.02143538e-004, -7.42089878e-006, 1.14453505e-005,
          -1.13426853e-004, -2.68864038e-004, -2.30953490e-004,
          -2.49172357e-004, -2.66948540e-004, -1.16136878e-004,
          4.12832342e-005, 9.62370104e-005, 4.30265391e-005,
          7.40671239e-005, -1.68086785e-007, 2.40277984e-007,
          4.01000619e-007, 3.79690619e-007, -2.35397033e-006,
          -8.50423703e-007, -4.73409564e-005, -8.64266112e-005,
          -3.16071419e-005, 7.15085207e-007, -1.22337995e-004,
          -2.13219217e-004, -1.20498422e-004, -1.50570733e-004,
          -1.90107676e-004, -1.67698468e-004, -3.32245218e-005,
          4.05067331e-005, 7.05802631e-006, 5.30720936e-005,
          -9.87405997e-008, 3.02576836e-007, -1.06446680e-006,
          1.87382525e-007, 1.28931424e-006, -2.62162321e-005,
          -5.02699586e-005, -8.44530077e-005, -4.47183847e-005,
          -1.32902369e-005, -8.17050750e-005, 1.02103186e-005,
          -1.39302165e-005, -7.96392196e-005, -8.71202137e-005,
          -9.93968788e-005, -1.27698979e-004, -1.19807037e-005,
          -1.86740647e-006, -2.96986741e-006, 3.39335401e-007,
          -1.17443199e-006, 1.10783432e-007, 1.26184112e-008,
          1.16899827e-007, -2.48891429e-005, -4.39513969e-005,
          -8.01756105e-005, -7.95016385e-005, 4.28494786e-005,
          5.21376169e-005, 3.84400082e-005, -1.31474771e-005,
          -2.91997258e-005, 5.31019850e-006, -3.43996944e-005,
          -3.48020221e-005, -7.27730076e-005, -4.89560080e-005,
          -1.11110039e-005, -1.98711358e-008, 0., 2.64326445e-007,
          1.06416746e-006, 1.92467482e-007, -2.58871169e-005,
          -3.18770690e-005, -6.21002910e-005, -6.34079770e-005,
          7.43956480e-005, 5.33635466e-005, 6.03224216e-005,
          8.64761387e-006, -8.66499977e-006, 2.92011446e-005,
          5.27784596e-006, -5.20775902e-005, -1.20471930e-004,
          -6.18636332e-005, -3.58333018e-005, -1.74232773e-005,
          -6.05344610e-007, -2.80869813e-007, -6.05919638e-007,
          -1.27985209e-006, -2.37702461e-005, -2.00731993e-005,
          -4.38044481e-005, -9.75868243e-005, 2.10714770e-005,
          -1.52868438e-006, 7.03458863e-005, 1.73503195e-005,
          5.87031138e-007, 3.33087482e-005, -3.33490825e-005,
          -4.73999535e-005, -1.10354507e-004, -7.76504821e-005,
          -5.18624984e-005, -2.55649848e-005, 4.37091899e-007,
          4.86168616e-008, 1.05855224e-006, -1.61932876e-005,
          -2.99621515e-005, 4.83414842e-005, -2.31152226e-005,
          -3.62496066e-005, -5.95954334e-005, 4.01206898e-006,
          -3.21155449e-006, 5.09696220e-005, -1.98906673e-005,
          -4.41643169e-006, -4.02047845e-005, -6.91070236e-005,
          -7.05746061e-005, -4.46354970e-005, -5.20668182e-005,
          -2.52333302e-005, 1.77610062e-007, -2.76350647e-007,
          -7.10536341e-008, -1.60892814e-005, -2.99380372e-005,
          4.73455329e-005, -2.45342490e-005, -5.36833941e-005,
          -3.91418798e-005, 6.76649233e-006, -4.74163535e-005,
          -4.36633309e-005, -1.19237066e-005, 1.62569850e-005,
          3.59887053e-005, -2.40240624e-005, -1.61964745e-005,
          -7.64598590e-005, -3.57137833e-005, 3.03781671e-005, 0.,
          -5.14150372e-007, 1.50994186e-008, -1.54456957e-005,
          -2.99445746e-005, -2.43144987e-005, 1.63318655e-005,
          -5.03646588e-005, -1.41284199e-005, -2.13673193e-005,
          1.51695076e-005, -2.27366145e-005, 3.96377254e-005,
          4.17751253e-005, 4.06917934e-005, -3.86518659e-005,
          9.97696225e-006, -5.48309399e-005, -2.94554648e-005,
          3.07157061e-005, -1.99248774e-007, -7.51950097e-007,
          -6.68862356e-007, -8.56127463e-006, -2.67149608e-005,
          -3.04096575e-005, 8.03562489e-006, -2.78848233e-006,
          2.17825072e-005, -4.14044416e-006, 3.43664542e-005,
          6.94156333e-005, 5.57402491e-005, 3.86799729e-005,
          2.79666547e-005, 1.02044351e-005, -1.48377430e-005,
          -3.59634178e-005, -2.93573030e-005, 3.17518461e-005,
          -1.99248774e-007, 0., -3.48622535e-007, 7.73381316e-007,
          -2.62974318e-005, -6.40453436e-005, -7.27328879e-005,
          -1.34073989e-005, -2.19421254e-005, 1.31836869e-005,
          2.52240261e-005, 1.12331632e-004, 7.26521757e-005,
          1.01010664e-004, 1.75229263e-006, 1.85415010e-005,
          2.94258371e-005, -2.75330476e-005, -2.98024243e-005,
          5.21988259e-005, -3.45380045e-007, 0. ]
      - [ 1.16671208e-006, -8.93433025e-007, -1.57045051e-007,
          -6.59419641e-007, -6.57789642e-005, -9.57014709e-005,
          -1.06565545e-004, -3.77600263e-005, 1.70174335e-005,
          3.72310642e-005, 2.60501274e-005, 7.59195564e-006,
          -8.76321137e-005, -8.28404154e-005, -1.14543414e-004,
          -4.51375963e-005, -4.56571688e-005, -9.52879418e-006,
          1.82570101e-008, 0., -7.65447169e-007, -4.47816063e-007,
          1.44916964e-006, -4.37419658e-006, -3.21170264e-005,
          -8.04669107e-005, -9.39061138e-005, 1.04208724e-004,
          9.44822968e-005, 9.26448483e-005, -1.00570987e-005,
          -7.04050729e-009, 7.54100838e-005, 6.61090598e-006,
          -1.03194085e-004, -4.68068793e-005, -4.54626897e-005,
          -4.50812913e-005, -1.79788572e-007, 9.12850506e-009,
          1.35149605e-007, 3.61095857e-007, 1.13836290e-006,
          -3.13369783e-005, -2.10767648e-005, -4.79569208e-005,
          1.41196579e-004, 8.96101628e-005, 2.66533934e-005,
          -4.47538914e-005, -8.44846218e-005, -1.82750518e-005,
          4.63667857e-006, 7.94311709e-005, -3.71575661e-005,
          -5.04182462e-005, -4.54079163e-005, -4.54865076e-005,
          -1.79788572e-007, -5.39365715e-007, -1.03452328e-006,
          1.34000106e-006, 5.08993799e-006, 4.82486794e-005,
          6.55045296e-005, 1.37245195e-004, 1.91201165e-004,
          1.53358196e-004, 3.39222561e-006, -1.82852455e-005,
          -1.05856634e-004, -1.98823967e-004, 2.40880945e-005,
          5.76292514e-005, -2.24543310e-005, -7.61257470e-005,
          -4.50939842e-005, -2.76874398e-005, -5.11980204e-007,
          9.12850506e-009, -4.53347042e-007, 1.03734749e-006,
          4.96857092e-006, 5.51919911e-005, 7.16339418e-005,
          1.61331656e-004, 2.58391257e-004, 1.67827980e-004,
          4.33255227e-005, -4.36565642e-005, -1.14529292e-004,
          -1.91546846e-004, -4.03528247e-006, 1.07167521e-004,
          -2.11035494e-005, -6.58692006e-005, -4.52281311e-005,
          -1.79788572e-007, 9.12850506e-009, -8.98942858e-007,
          9.15184089e-008, -1.92191720e-007, 5.02627836e-006,
          5.61254965e-005, 6.88375803e-005, 8.85604677e-005,
          2.71773373e-004, 1.26257946e-004, 7.61421034e-005,
          -1.82366075e-005, -7.17819712e-005, -1.24797545e-004,
          4.35604707e-005, 7.90208287e-005, -2.30813166e-005,
          -6.39821083e-005, -1.82872282e-005, 0., -1.79788572e-007, 0.,
          4.04865794e-008, 3.59567622e-007, 5.59222872e-006,
          5.59145992e-005, 7.19334712e-005, 7.98284964e-005,
          2.51445861e-004, 1.34015761e-004, 4.66762031e-005,
          -6.02507462e-005, -6.91765163e-005, -1.17960408e-004,
          5.34769351e-005, 2.84616144e-005, -1.31854986e-005,
          -5.81377826e-005, -1.73974149e-005, -3.41320145e-007,
          1.82570101e-008, -1.70660073e-007, 1.91058149e-007,
          8.34371292e-007, 5.48356593e-006, 5.54943254e-005,
          7.12935653e-005, 1.28317188e-004, 2.47468008e-004,
          1.32375033e-004, 8.11968948e-006, -6.35792094e-005,
          -7.05603597e-005, -9.34752316e-005, 3.36530647e-005,
          2.31058693e-005, -4.01954003e-006, -2.24995565e-005,
          4.29039716e-007, -1.79788572e-007, 0., 9.12850506e-009,
          3.22215072e-007, 2.36141682e-006, 5.47765603e-006,
          5.63166577e-005, 7.16534851e-005, 1.37556985e-004,
          2.45444127e-004, 1.34878283e-004, -1.27201838e-005,
          -6.78475772e-005, -6.97103096e-005, -1.02516387e-004,
          2.73508031e-005, 2.81525899e-005, 1.64982350e-006,
          3.09004172e-005, 4.10782718e-007, 3.31343585e-007, 0.,
          1.61107536e-007, 9.12850506e-009, -5.01266527e-007,
          5.33480579e-006, 5.87819595e-005, 7.05367929e-005,
          1.36588555e-004, 2.48461234e-004, 1.31207242e-004,
          -1.30995295e-005, -7.02113321e-005, -3.21125844e-005,
          -1.27550025e-004, -2.47762928e-005, 2.60760989e-005,
          3.06642905e-005, 4.52769746e-005, 3.58408533e-006, 0.,
          9.12850506e-009, 0., 6.99282225e-007, 5.13273221e-007,
          5.18893194e-006, 5.62841415e-005, 7.19533346e-005,
          1.70622254e-004, 2.46706768e-004, 1.07320571e-004,
          -1.09923767e-005, -5.42725502e-005, -5.75656559e-005,
          -1.82735457e-004, -2.74867989e-006, 3.08609051e-005,
          7.65983859e-005, 6.01194952e-005, 7.26809594e-006, 0.,
          3.31343585e-007, 0., 4.58544065e-007, 2.61005169e-007,
          5.58736338e-006, 6.04013658e-005, 7.20230018e-005,
          1.71917884e-004, 2.46648386e-004, 9.51933471e-005,
          -9.60921443e-006, -5.55323604e-005, -5.71566816e-005,
          -1.97033107e-004, 1.56047881e-005, 4.94829292e-005,
          9.83094069e-005, 5.93754849e-005, 7.08873131e-006,
          9.12850506e-009, 4.83322594e-007, 0., 7.78062258e-007,
          1.23308314e-006, 5.58436614e-006, 5.78873696e-005,
          7.27172737e-005, 1.26993720e-004, 2.03210933e-004,
          8.13039806e-005, -1.99416590e-005, -3.60314261e-005,
          -3.87972468e-005, -1.95610424e-004, 1.58377698e-005,
          6.05532077e-005, 1.13871618e-004, 3.90568057e-005,
          3.23127915e-006, 9.12850506e-009, 0., 9.12850506e-009,
          1.15983630e-006, 1.61107536e-007, 5.37108463e-006,
          5.87282593e-005, 7.15649439e-005, 9.49604873e-005,
          1.19140175e-004, 7.90747290e-005, -1.80248280e-005,
          -3.63958898e-005, -7.73159118e-005, -1.94886146e-004,
          3.12362863e-005, 7.37675655e-005, 1.02220736e-004,
          2.80854638e-005, 0., 0., 0., 3.65140203e-008, 4.95613165e-007,
          4.82161681e-007, 6.55470558e-006, 5.78729450e-005,
          7.17706935e-005, 1.01275036e-004, 1.90102786e-004,
          9.87561507e-005, -1.88034792e-005, -5.33355560e-005,
          -9.10185408e-005, -1.96277688e-004, 1.02141539e-005,
          5.42904163e-005, 9.71929403e-005, 8.52903486e-006, 0.,
          1.61107536e-007, 1.61107536e-007, 2.73855143e-008,
          5.32162005e-007, 1.05769095e-006, 5.97948474e-006,
          5.82127141e-005, 7.17619623e-005, 1.08899018e-004,
          2.19923473e-004, 1.01777681e-004, -1.83806751e-005,
          -1.67715061e-005, -1.15991315e-004, -1.90099643e-004,
          1.80264051e-005, 9.94687580e-005, 1.08228807e-004,
          8.84510428e-006, 0., 9.12850506e-009, 1.61107536e-007, 0.,
          7.39887298e-007, -8.39427059e-007, 6.33215268e-006,
          5.88619041e-005, 7.29080130e-005, 7.38633171e-005,
          1.80991265e-004, 1.23043879e-004, 5.45336434e-006,
          -3.53219839e-005, -5.66910312e-005, -1.40425342e-004,
          8.35380779e-005, 1.56603885e-004, 1.07560350e-004,
          8.71107659e-006, 0., 0., 0., 0., 1.19933873e-006,
          2.78344913e-007, 9.54187385e-007, 1.84380278e-005,
          6.44467727e-005, 7.26488215e-005, 1.24728016e-004,
          1.56532158e-004, 9.97090901e-005, 3.10362411e-005,
          2.09214959e-005, 2.61387631e-005, 1.18117823e-004,
          1.20208046e-004, 6.73563773e-005, 1.26794725e-006, 0., 0., 0.,
          0., 6.17858916e-007, -3.65412660e-007, 6.50877382e-007,
          7.78842059e-006, 4.71882595e-005, 6.75535994e-005,
          1.13379261e-004, 2.30898964e-004, 2.29285943e-004,
          2.16703746e-004, 1.45096099e-004, 7.85619050e-005,
          5.63299873e-005, -4.48904029e-006, 4.27406449e-005,
          6.89218837e-007, 0., 0., 0., 0., 1.79364548e-007,
          6.75458523e-007, 1.12848818e-006, 3.41298431e-007,
          2.08262791e-005, 4.35267029e-005, 3.72594186e-005,
          2.44379953e-005, 1.20567092e-004, 1.26756320e-004,
          1.27268577e-004, 9.29982925e-005, 2.12121176e-005,
          4.29883657e-005, 5.24045754e-005, -1.06303685e-006, 0., 0., 0.,
          0. ]
      - [ 6.59763032e-007, -2.13867111e-006, 1.44456266e-007,
          2.17143202e-006, 1.09214943e-006, 3.61957427e-005,
          -7.99631744e-005, 1.66018090e-005, 1.46471968e-004,
          2.42309266e-004, 1.87513462e-004, 2.73184764e-004,
          2.51446647e-004, 1.23817124e-004, -1.41029886e-005,
          -4.66470556e-005, 7.42485096e-009, 1.16877608e-009,
          -1.92343521e-007, -3.98620074e-007, 4.83332997e-007,
          9.59739396e-007, -3.06299580e-006, 9.89046384e-007,
          3.60187369e-005, -6.17367004e-006, -1.03991397e-006,
          1.87289043e-004, -6.54962560e-006, 4.84144475e-005,
          4.37977360e-005, 2.68633794e-005, 8.30263089e-005,
          1.42385848e-004, -3.42102867e-005, -5.87977665e-005,
          -1.77373181e-006, -5.22878416e-008, -2.60645294e-007,
          2.44341976e-007, 2.38212260e-006, 7.09763469e-007,
          -9.31811996e-007, 5.08897174e-005, 3.28585702e-005,
          -4.87142206e-005, 2.85497837e-004, -2.30794831e-005,
          5.00543611e-005, 1.85725934e-004, 1.14476366e-004,
          5.21635739e-005, 6.40802245e-005, 1.83458087e-005,
          7.54285720e-005, -1.16662559e-004, -2.92605764e-005,
          5.64307720e-006, 8.60496883e-008, 3.61922730e-007,
          -6.49662809e-007, -1.67477742e-006, 2.42890201e-006,
          -3.60500671e-005, 2.81304419e-005, -1.24529570e-005,
          9.43999112e-005, 4.74877743e-005, 5.71604323e-005,
          6.51899609e-005, -2.57959800e-006, 1.31610854e-004,
          7.56358422e-005, 5.07919140e-006, -2.92776494e-005,
          -1.19643046e-004, -2.37921922e-005, 9.41616599e-006, 0.,
          -4.83616532e-007, -1.23790937e-006, 2.52982773e-006,
          -1.21807170e-005, -4.62233729e-005, 2.34899562e-005,
          -6.62484526e-005, 8.67714334e-005, 1.67878025e-004,
          8.86206544e-005, -5.41584341e-005, -6.09981471e-005,
          1.65597346e-004, 4.53628272e-005, 4.45499336e-006,
          -5.20923677e-005, -1.41597498e-004, 7.17459579e-006,
          9.41346661e-006, -8.91782747e-007, 2.61166491e-007,
          1.32253820e-006, -1.54181146e-006, -1.21768608e-005,
          -5.28750606e-005, -3.01059044e-005, -9.00308951e-005,
          9.62558188e-005, 1.87502097e-004, 9.90338667e-005,
          -5.34405590e-005, -5.93123368e-005, 5.13228188e-005,
          -1.96502006e-005, 7.92078845e-006, -1.76010290e-004,
          -9.02586471e-005, 6.39145628e-006, 9.14212524e-006,
          2.75676570e-007, -4.52305187e-007, 6.77611780e-008,
          -9.35204582e-007, -5.49368769e-006, -5.42464695e-005,
          -2.79468677e-005, 1.31683206e-004, 2.79747451e-006,
          2.79660962e-005, -4.53291832e-005, -1.09393251e-004,
          -1.10970650e-004, -3.37049023e-005, -2.02073606e-005,
          -1.98027501e-005, 3.17208082e-006, 1.96207310e-007,
          4.18613081e-006, 1.07722717e-005, -8.64598420e-008,
          -7.94248436e-008, -1.51171014e-006, -1.58352407e-006,
          1.02489601e-007, 2.87427665e-005, 4.73735017e-005,
          1.43401645e-004, 2.00003105e-005, -8.89402945e-005,
          -3.31600721e-004, -2.91041884e-004, -2.50675192e-004,
          -1.84807112e-004, -1.70539628e-004, 6.10404531e-005,
          7.65533550e-005, 5.26263575e-005, -1.15402845e-005,
          4.74809167e-006, -5.66284726e-008, -1.42356056e-008,
          -2.68941199e-006, 7.85239138e-007, 1.77259437e-006,
          1.04197847e-004, 9.21921601e-005, 2.67907657e-004,
          1.69938256e-004, -1.59234914e-004, -6.63973158e-004,
          -6.33726828e-004, -5.05838834e-004, -6.81652280e-004,
          -2.23400202e-004, 1.69230945e-004, 2.47420336e-004,
          1.12026210e-004, -1.84983310e-005, 5.90591753e-006,
          -1.64254618e-006, -3.30685225e-007, -1.32503487e-006,
          8.95824599e-007, 6.18712602e-006, 1.12955400e-004,
          9.99846161e-005, 2.88149778e-004, 1.47814993e-004,
          -1.79426177e-004, -7.92720646e-004, -8.03046685e-004,
          -7.07844272e-004, -7.77237001e-004, -2.31385056e-004,
          2.44811497e-004, 3.26485868e-004, 1.24468919e-004,
          -1.60751915e-005, 4.95527229e-006, -7.95091182e-007,
          4.08212175e-009, -2.33750734e-006, -1.60326756e-008,
          1.46639627e-006, 1.02297803e-004, 9.11431416e-005,
          2.51256890e-004, 6.12416188e-005, -2.86821130e-004,
          -5.46618889e-004, -5.63845737e-004, -4.23522957e-004,
          -5.95391961e-004, -2.25933181e-004, 6.58838544e-005,
          2.64352013e-004, 1.26018669e-004, -1.16958799e-005,
          2.30438854e-006, -2.86602415e-007, -1.19075582e-006,
          -2.97586212e-006, 2.37570134e-007, 3.64017478e-006,
          4.61405507e-005, 4.63574288e-005, 7.25385871e-006,
          4.13113230e-005, -1.77676746e-004, -1.95055298e-004,
          -1.21794190e-004, -1.04746854e-004, -2.17604393e-004,
          -1.95141154e-004, -7.03757250e-005, 2.21934188e-005,
          3.59032856e-005, -5.11012377e-006, 5.00376473e-006,
          1.29150749e-006, 2.92633217e-007, -4.78694460e-007,
          -2.94733900e-006, 3.55622387e-006, -2.56979729e-005,
          -1.07293845e-005, -1.63050339e-004, 5.08742378e-005,
          1.11290632e-004, -3.44973414e-005, -3.18926941e-005,
          -5.58017964e-005, 1.30951317e-004, -6.13452357e-005,
          -9.76738829e-006, -1.83921002e-004, -4.52262320e-005,
          2.54594997e-005, 4.39905625e-006, -1.70455962e-007,
          -1.41809073e-006, -7.44455178e-007, -6.03447177e-007,
          -4.11872534e-005, -5.39815301e-005, -1.36660339e-004,
          -2.52699625e-004, 3.95166098e-005, 1.13182890e-004,
          2.06601588e-004, -2.95837581e-005, -6.25917237e-005,
          1.56403548e-004, 1.44133330e-004, -1.63654084e-004,
          -3.03216337e-004, -9.02846004e-005, -5.12419938e-005,
          4.51552432e-006, -2.39552787e-006, -6.11985172e-007,
          -4.62845810e-006, 6.71130920e-007, -8.80875741e-005,
          -7.85239245e-005, -1.37409399e-004, -2.32692662e-004,
          9.12857286e-006, -3.27812122e-005, 9.33073024e-005,
          -3.00497468e-005, -5.04735908e-005, 7.87685567e-005,
          1.22954239e-004, -1.35177601e-004, -2.45192408e-004,
          -1.50315725e-004, -1.76597037e-004, 5.70970542e-006,
          -1.52515940e-006, 3.71278560e-007, 2.45835145e-006,
          -2.39171072e-006, 4.19703792e-006, -5.31936421e-005,
          -6.80702797e-005, -6.75513147e-005, -4.67284772e-005,
          -4.22466874e-005, 9.71098925e-005, -4.66693155e-006,
          -9.33597985e-005, 1.57044724e-005, 1.10619192e-004,
          -1.22514379e-004, -1.55605681e-004, -1.46067934e-004,
          -1.62853583e-004, 2.74219633e-006, -3.90331991e-007,
          -1.51751158e-006, -8.81042695e-007, -3.16635419e-006,
          5.43871647e-006, -6.02797118e-005, -4.18935488e-005,
          -4.32342858e-005, 8.23934097e-005, 8.40781577e-005,
          1.95556211e-007, -3.99834607e-005, 2.92411260e-005,
          8.45858231e-005, -4.77613321e-005, 9.77278905e-005,
          -3.99993260e-005, -1.15873590e-004, -7.75835797e-005,
          -1.76548474e-005, -2.08468423e-010, -4.55751632e-007,
          2.26100815e-006, -1.81723919e-006, -3.62190463e-006,
          -4.72675711e-005, -2.58467226e-005, -7.67173333e-005,
          1.65298916e-005, -6.08137161e-005, 6.20391875e-005,
          1.48453328e-004, 5.36271546e-005, -7.46024671e-005,
          1.80516334e-004, -4.88623300e-005, -3.89978737e-007,
          -1.88656690e-004, -5.26576951e-005, -2.08753809e-005,
          -2.22119695e-007, -6.64826914e-008, -2.16818444e-006,
          -4.01421676e-006, 3.90055493e-006, 1.83317698e-005,
          -9.89702585e-006, -3.25857982e-005, 5.27314405e-005,
          -5.00965034e-005, 4.01956240e-005, 1.19519071e-004,
          2.34562438e-004, 1.86487276e-004, 6.73296745e-005,
          7.85139928e-005, 6.16655452e-005, -4.12995178e-005,
          -1.63194291e-005, -1.81336327e-006, 4.53206681e-008,
          -1.58286312e-007, 1.36009049e-007, -3.10754626e-006,
          -1.26917996e-006, -2.22348331e-006, -7.96374025e-006,
          -5.34364699e-005, -1.61210002e-004, -3.40217011e-005,
          8.03380244e-005, 5.74798323e-005, 2.52127007e-004,
          1.28088242e-004, 1.29101303e-004, 1.07046697e-004,
          6.26844194e-005, -1.28891124e-005, -2.50726714e-007,
          5.94362427e-006, -1.17125381e-007, -2.25942696e-008 ]
      - [ 1.41763553e-006, -4.88782462e-007, -6.55649274e-007,
          1.34595325e-006, -1.05110703e-004, -1.12747060e-004,
          -8.40190260e-005, -8.09872799e-005, 9.57742577e-006,
          3.42406565e-005, -3.16127444e-005, 6.29188726e-005,
          3.70413517e-007, 1.06725864e-004, 3.75489690e-005,
          2.07478934e-006, -4.79335256e-007, 0., 5.54214466e-007, 0.,
          -1.63809295e-006, 6.45241414e-007, 1.95291500e-006,
          -1.68655170e-008, -9.60039979e-005, -8.32942023e-005,
          -1.14279152e-004, 4.20175820e-005, -5.03679657e-005,
          5.78478466e-005, -1.69564028e-005, 1.30091094e-005,
          5.79847438e-006, -2.24877385e-005, 1.97805803e-005,
          9.81855192e-005, 2.08620277e-005, 2.53847656e-006,
          -1.71113390e-006, 4.65191654e-008, 1.09246616e-006,
          1.13567853e-006, -1.29836417e-006, 2.26330421e-008,
          -9.03378968e-005, -7.97093307e-005, 1.31149602e-004,
          1.41263527e-005, 2.87516036e-006, 3.65646993e-005,
          4.77742506e-005, -4.60127831e-006, -1.05787498e-004,
          -2.38439698e-005, -7.82669740e-005, -5.61944535e-006,
          -8.23359733e-006, -4.61176171e-007, -7.88781620e-007, 0.,
          -7.12302494e-007, 1.38132395e-006, -6.42121506e-007,
          2.62552680e-006, -7.74994915e-005, -1.69089126e-005,
          5.95392994e-005, 1.75263415e-006, -5.58523470e-006,
          7.15746792e-005, -1.00157304e-005, 6.22712614e-005,
          -1.28251997e-006, 2.40655881e-005, -1.02915445e-004,
          -1.11140507e-004, -2.25391195e-005, -4.61176171e-007,
          -7.82794814e-007, -1.81590742e-008, 7.44122985e-007,
          2.03982881e-006, 1.25573990e-006, -2.52806312e-005,
          3.97834265e-006, -2.00977920e-005, 3.33911885e-005,
          4.98568370e-005, 1.37205760e-004, -7.99667032e-006,
          -1.13392025e-005, 7.83887663e-005, 1.48388921e-004,
          2.49681052e-005, -1.16267249e-004, -1.18843542e-004,
          -3.21599728e-005, -2.81332104e-005, 5.07695347e-007,
          -9.22352342e-007, -2.52316255e-007, -5.47341358e-007,
          9.63408411e-007, -3.70392845e-005, 1.70572548e-005,
          -3.25365800e-005, 4.04067305e-006, -3.66692875e-005,
          1.22890444e-004, -9.13393706e-006, -1.23648870e-005,
          5.77533028e-005, 1.62279845e-004, 1.01625999e-004,
          -9.36312645e-005, -1.28727246e-004, -1.26750674e-004,
          -5.04173440e-005, -7.88781620e-007, -1.31463594e-006,
          -1.49343187e-008, 1.17846923e-006, -7.54943585e-007,
          -2.12442028e-005, 2.56441417e-005, -8.17650653e-005,
          8.22607853e-006, -3.62948449e-005, 4.53411412e-005,
          -1.03673619e-005, -1.04421706e-005, 7.85829252e-005,
          1.27592692e-004, 1.53640667e-005, -8.64130998e-005,
          -1.31736844e-004, -1.27456617e-004, -4.92037034e-005,
          -3.68137819e-007, 5.07695347e-007, -6.51523749e-007,
          -5.43535805e-007, 8.71649945e-007, -2.26577613e-005,
          4.81869465e-005, -4.94266715e-005, 6.50210541e-006,
          -5.96861973e-005, 1.31777497e-005, -4.73977743e-005,
          -2.62795929e-005, 1.04238616e-005, 6.65662810e-005,
          8.79384515e-006, -8.19750057e-005, -1.22626356e-004,
          -8.39665081e-005, -5.10078753e-005, 0., -4.14656995e-007,
          -4.76542112e-007, 1.12981797e-006, -1.14187117e-006,
          -2.13133808e-005, -4.77280901e-006, -1.86470115e-005,
          4.93670959e-005, -8.89232688e-005, -6.86529092e-005,
          -1.30341316e-004, -1.09162946e-004, -7.54224166e-005,
          -6.30483628e-005, -3.23476634e-005, -6.72159658e-005,
          -9.99258828e-006, -4.05191640e-005, -4.34011454e-005, 0.,
          -2.62927188e-007, -1.52705454e-007, 3.83294008e-007,
          1.71217266e-007, -2.12512186e-005, -3.40254724e-006,
          5.13983541e-005, 8.32518635e-005, -8.17950422e-005,
          -3.25072324e-004, -2.69261916e-004, -2.89846270e-004,
          -2.83883244e-004, -2.10766666e-004, -8.03558287e-005,
          -9.39304227e-005, -6.83984263e-006, -3.27395464e-005, 0.,
          5.07695347e-007, -2.62927188e-007, -1.54545467e-006,
          -5.40802262e-007, 3.44955595e-007, 2.03824493e-005,
          2.47744556e-005, 1.12476744e-004, 1.33661539e-004,
          -6.54377145e-005, -2.55991123e-004, -3.81328893e-004,
          -3.43069318e-004, -3.52435483e-004, -2.30042948e-004,
          3.70448543e-005, 2.51308993e-005, -1.19345577e-005,
          -4.34193062e-005, 0., -1.81590742e-008, -2.62927188e-007,
          1.44584885e-006, -1.24352016e-006, 7.50568506e-006,
          8.35328610e-005, 5.48834250e-005, 1.42522113e-004,
          1.20087425e-004, 4.97097026e-005, -1.14942770e-004,
          -2.43857416e-004, -3.44503816e-004, -3.12745105e-004,
          -1.18968848e-004, 8.56324914e-005, 8.47984193e-005,
          -3.87618502e-006, -4.33829882e-005, -1.81590742e-008, 0., 0.,
          4.37718739e-007, 2.06804862e-006, 1.58685652e-005,
          1.28238360e-004, 6.20232022e-005, 8.27504846e-005,
          1.58538416e-004, 1.62567536e-004, 8.19424749e-005,
          -7.35619396e-005, -2.76523991e-004, -2.68205011e-004,
          -1.18962154e-004, 9.60526377e-005, 1.72889268e-004,
          1.89552593e-005, -1.02723197e-005, -1.81590742e-008, 0.,
          5.07695347e-007, 6.08012840e-007, -1.17042509e-006,
          1.58059338e-005, 1.31764493e-004, 5.96053505e-005,
          1.46562699e-004, 1.59900592e-004, 1.78611212e-004,
          9.81603807e-005, -9.26400844e-006, -1.43441590e-004,
          -2.17723806e-004, -9.04272820e-005, 5.92591459e-006,
          1.79844690e-004, -5.64323045e-006, 0., 0., -2.62927188e-007,
          2.03078139e-006, -7.46497278e-007, 9.60604609e-008,
          1.72368000e-005, 1.26937433e-004, 6.10945499e-005,
          1.63772915e-004, 2.31610233e-004, 1.85255485e-004,
          1.02912665e-004, -1.60609816e-005, -1.06971791e-004,
          -3.77992837e-004, -6.09071867e-005, 5.27352313e-005,
          2.02559939e-004, 1.22373722e-005, 0., 0., 0., 1.52308598e-006,
          4.84557177e-007, 1.57471902e-006, 1.34570091e-005,
          1.29894790e-004, 6.15194949e-005, 1.58699317e-004,
          1.71904598e-004, 2.05580989e-004, 4.80891831e-005,
          -2.23974967e-005, -2.49804521e-004, -2.93130666e-004,
          -5.94843755e-007, 7.51280095e-005, 1.78092116e-004,
          4.71374778e-006, -2.62927188e-007, 5.07695347e-007, 0., 0.,
          1.30189960e-006, -9.85775728e-007, 1.52801185e-005,
          1.29895008e-004, 6.22197185e-005, 7.40710311e-005,
          1.58637311e-004, 2.29624726e-004, 4.86551689e-005,
          -1.55966540e-004, -1.62406723e-004, -7.43542187e-005,
          1.51496832e-004, 2.60884088e-004, 1.41627592e-004,
          -1.68445195e-006, 0., 0., 0., 0., 7.23180335e-007,
          8.99305917e-007, 1.53420388e-005, 1.27460982e-004,
          3.76693824e-005, 8.08402547e-005, 1.74873232e-004,
          1.57999617e-004, 8.48251511e-005, -2.62337944e-005,
          6.37506746e-005, 1.84806224e-004, 2.76306586e-004,
          1.39565935e-004, 1.17016170e-005, -2.49096502e-007, 0., 0., 0.,
          0., 3.04912845e-007, -1.48209506e-006, 5.43855776e-006,
          2.99756193e-005, 2.52788541e-005, 1.68635524e-005,
          1.15206312e-004, 1.55064481e-004, 2.46821583e-004,
          1.80601768e-004, 2.41001777e-004, 3.62867868e-004,
          1.87124519e-004, 6.30165732e-006, -1.71598131e-005,
          -7.22830155e-005, 0., 0., 0., 0., 6.43036742e-007,
          9.50678725e-007, -1.11275952e-007, -6.49876419e-009,
          -7.44137214e-005, -1.73161825e-005, -1.64701778e-005,
          1.94050644e-005, 5.38108579e-005, 1.93641463e-004,
          2.72106321e-004, 2.66180665e-004, 5.71018827e-005,
          -2.01251478e-005, -1.14814729e-005, -1.04849554e-004, 0., 0.,
          0., 0. ]
      - [ 6.60752107e-007, -2.02013916e-006, 2.08484927e-008,
          -7.44195772e-009, -1.30991145e-006, -3.68675610e-005,
          -7.46585938e-005, -6.83567851e-005, -4.30433138e-005,
          -1.26846426e-004, -8.65019028e-005, -6.22427760e-005,
          -7.92598512e-005, -1.93897431e-005, -1.76259946e-005,
          -2.49354315e-007, 0., 0., 0., 0., -1.08243023e-006,
          7.66554081e-007, 5.92331105e-007, -9.00064833e-007,
          -2.07451012e-005, -8.92674361e-005, -1.02631428e-004,
          -6.73318718e-005, -1.07526124e-004, -8.80722437e-005,
          -3.85768835e-005, -1.23809848e-004, -1.52752284e-004,
          -1.07011983e-004, -1.15628345e-005, -2.82050860e-006, 0., 0.,
          0., 0., -1.71308457e-007, -3.33722880e-007, -8.82236861e-007,
          -2.13003273e-006, -3.82283506e-005, -7.50358013e-005,
          -1.39841097e-004, -1.43288999e-004, -9.78501339e-005,
          -4.41104130e-005, 3.05599788e-005, -4.81789612e-005,
          -1.72515516e-004, -1.73429216e-004, -2.87917501e-005,
          -2.01337775e-006, 0., 0., 0., 0., 1.15123740e-007,
          -5.85367957e-007, -2.54644760e-007, -4.97891222e-007,
          -4.00311546e-005, -7.61871270e-005, -1.50564883e-004,
          -1.42817182e-004, -7.68478494e-005, 7.71175473e-005,
          1.79949740e-004, 3.96092073e-005, -1.87446625e-004,
          -2.56260711e-004, -3.66091808e-005, -2.33520859e-006, 0., 0.,
          0., 0., -2.01421258e-007, -8.90063987e-008, 6.09524648e-007,
          -3.97792945e-007, -1.66588834e-005, -2.76711144e-005,
          -1.08254724e-004, -1.17059157e-004, -3.11729964e-005,
          1.25268649e-004, 2.08211088e-004, 6.31092989e-005,
          -1.56769151e-004, -2.79064610e-004, -3.29481263e-005,
          -2.14783613e-005, 0., 0., 0., 0., -4.10840443e-007,
          7.63508638e-007, -1.14255351e-006, -2.45550325e-007,
          -5.64824290e-007, -2.87075494e-007, -1.63477907e-005,
          -2.87813941e-006, 6.26187903e-005, 1.80010422e-004,
          2.34644220e-004, 9.84075305e-005, -1.59052783e-004,
          -2.80335400e-004, -3.53347787e-005, -2.26779266e-005, 0., 0.,
          0., 0., -9.07967205e-007, -8.90063987e-008, 3.97678605e-007,
          -1.00866498e-006, -8.06640969e-007, -1.31735845e-007,
          -1.70270796e-005, 5.14649764e-005, 1.10864159e-004,
          1.94281354e-004, 1.53987741e-004, 8.24698582e-005,
          -9.76491792e-005, -2.72785051e-004, -5.67625320e-005,
          -1.16383135e-005, 0., 0., 0., 0., -7.61889737e-007,
          -1.15767030e-007, -1.15374166e-006, -7.27895610e-007,
          -3.46929276e-008, -8.42712836e-007, -8.65149872e-008,
          8.27135082e-005, 1.26041516e-004, 1.85106866e-004,
          1.36018090e-004, 1.24955413e-005, -1.56664566e-004,
          -2.19657173e-004, -5.98167826e-005, -2.42069950e-006, 0., 0.,
          0., 0., -3.51182365e-007, -1.07110282e-006, -2.34886244e-007,
          -6.16710508e-007, -5.46728302e-007, -1.63428342e-006,
          -4.39659658e-007, 8.29124110e-005, 1.26745799e-004,
          1.32060304e-004, 1.08811466e-004, -9.06503192e-005,
          -2.07022429e-004, -1.41527300e-004, -3.50998525e-005,
          -1.57543957e-006, 0., 0., 0., 0., -5.66481958e-007,
          -5.33065325e-008, -1.77476898e-006, -6.22185098e-007,
          -1.02811850e-006, -1.74660627e-007, 2.70800854e-007,
          8.99393926e-005, 1.05702995e-004, 1.28172935e-004,
          6.83778781e-005, -1.49836167e-004, -1.78244503e-004,
          -7.89958212e-005, -2.52117547e-006, 3.20072331e-007, 0., 0.,
          0., 0., -2.17390067e-007, -3.38769132e-006, -4.63068119e-007,
          -5.63129788e-007, -1.26771761e-006, -1.21582843e-006,
          7.29251440e-007, 9.13962649e-005, 9.51342226e-005,
          9.95453156e-005, -7.29403764e-005, -1.60589800e-004,
          -7.74307628e-005, -3.05394678e-005, -7.62590389e-007,
          -9.92723130e-007, 0., 0., 0., 0., -5.46955960e-007,
          -1.01935768e-006, 8.92211318e-008, -1.35695586e-007,
          4.15506747e-007, -2.32479806e-007, -3.26007012e-006,
          4.91691972e-005, 9.35081334e-005, 3.75003765e-005,
          -1.02433281e-004, -7.82767311e-005, -2.58481814e-005,
          -1.33869219e-006, 9.92022933e-007, -8.39111578e-007, 0., 0.,
          0., 0., -4.26370008e-007, -1.91799714e-007, -3.79509629e-007,
          -1.51930851e-006, -1.19119207e-007, -9.57179509e-007,
          -5.02594094e-006, 3.99611708e-005, 5.34497995e-005,
          -7.14084890e-005, -3.60541089e-005, 9.23965308e-006,
          4.12159498e-005, -7.34438231e-007, -8.62883894e-007,
          5.14486601e-007, 0., 0., 0., 0., -8.75133594e-007,
          -1.15243961e-006, 2.87369630e-008, 1.74875353e-007,
          -1.03545267e-006, 0., -5.65071314e-005, -2.20677775e-005,
          -5.02793519e-005, -6.75982083e-005, 3.17476733e-005,
          8.80604130e-005, 4.96820685e-005, -2.31534059e-007,
          -1.60943364e-006, -2.25487042e-007, 0., 0., 0., 0.,
          -7.65942559e-007, 9.94923894e-008, 1.31940880e-007,
          -6.25482869e-007, -3.57886734e-007, -6.69128576e-006,
          -7.42287011e-005, -7.81464623e-005, -9.39547099e-005,
          1.20426348e-005, 4.39878058e-005, 1.30561704e-004,
          4.76187997e-005, -5.94003552e-007, -8.33803767e-007,
          -6.29948829e-007, 0., 0., 0., 0., 4.62866545e-008,
          1.35581624e-009, -8.36493939e-007, -3.36654921e-007,
          6.26893097e-007, -6.38336714e-005, -1.06922314e-004,
          -1.43108220e-004, -1.29950422e-004, 4.07310290e-005,
          1.85695273e-004, 1.28777247e-004, 1.89221100e-005,
          -2.90340868e-005, 1.54345980e-006, -2.87075494e-007, 0., 0.,
          0., 0., -4.84769657e-007, -3.35217387e-009, 1.21884355e-007,
          -1.87709929e-007, -3.02646022e-005, -7.65535733e-005,
          -1.65308986e-004, -2.00220573e-004, -6.52006929e-005,
          5.88322728e-005, 1.35074311e-004, 7.97673420e-005,
          -1.94109143e-005, -6.79405130e-005, 2.16268677e-006,
          1.96669447e-007, 0., 0., 0., 0., -1.00565218e-008,
          -7.88018951e-007, -8.42369275e-007, -1.27359033e-006,
          -4.07515399e-005, -8.91556847e-005, -1.94380962e-004,
          -1.86434641e-004, -1.10840505e-004, 2.47643638e-005,
          6.87485663e-005, -1.02707436e-005, -4.60041156e-005,
          -1.30786066e-004, -6.99141237e-005, -1.10078724e-006, 0., 0.,
          0., 0., -1.07844664e-006, -5.03766557e-007, -6.18898810e-007,
          2.24514181e-007, -5.35979452e-005, -9.04934059e-005,
          -2.03773219e-004, -1.90713748e-004, -1.13356313e-004,
          -7.56548034e-005, 3.06629454e-006, -1.41536220e-004,
          -2.36318447e-004, -2.54377170e-004, -4.56283087e-005,
          3.30765124e-006, 0., 0., 0., 0., 7.61718297e-008,
          -1.28926240e-006, 0., -3.57886734e-007, -2.84076941e-005,
          -8.55986946e-005, -1.73352848e-004, -1.78157963e-004,
          -9.94752772e-005, -4.38036077e-005, 1.82778294e-005,
          -2.15093519e-006, -1.13184651e-004, -1.89533355e-004,
          -2.08526635e-005, -8.35951994e-007, 0., 0., 0., 0. ]
      - [ -2.31659328e-007, -4.96489065e-007, -6.73365321e-007,
          -6.39782797e-007, -7.36811944e-006, -3.40085899e-005,
          -1.58142735e-004, -2.29274156e-004, -1.13487491e-004,
          -1.44805163e-004, -7.17602306e-005, -5.97322942e-005,
          -1.43068813e-004, -1.29120439e-004, -2.77062718e-005,
          -1.04690416e-005, 0., 0., 0., 0., -4.18356564e-007,
          -7.05882712e-007, -3.81370370e-007, -2.98472003e-007,
          -9.14326938e-006, -3.64939515e-005, -1.59692208e-004,
          -2.37255968e-004, -2.05404125e-004, -1.62483178e-004,
          -8.19508787e-005, -7.90481427e-005, -1.49122847e-004,
          -1.70579617e-004, -2.56343210e-005, -1.07315363e-005, 0., 0.,
          0., 0., -8.26996427e-007, -1.60260720e-006, -3.82038507e-007,
          -3.48896356e-006, -1.26213636e-005, -2.09987538e-005,
          -9.71543195e-005, -7.19026211e-005, 1.03428522e-006,
          4.57488431e-006, -2.89125819e-005, -5.86040333e-005,
          -1.80114541e-004, -1.51431421e-004, -2.89283944e-005,
          -1.10960173e-005, 0., 0., 0., 0., 1.14105660e-006,
          -9.51234711e-007, -1.64700282e-007, -8.18173646e-007,
          -8.50864581e-006, -1.43891830e-005, -1.83460761e-005,
          2.95369955e-005, 6.84648476e-005, 5.03510855e-005,
          -1.16897818e-005, -5.57135681e-005, -1.50517095e-004,
          -1.21163561e-004, -2.45353694e-005, -6.66880851e-006, 0., 0.,
          0., 0., -1.03667696e-006, -8.38109031e-007, -4.62999765e-007,
          -1.03721584e-006, -3.09754773e-006, -1.11946929e-005,
          -1.16192832e-005, 4.50292828e-005, 7.10673849e-005,
          -4.70120285e-005, -1.14256263e-005, -6.53199750e-005,
          -7.83120486e-005, -4.51395717e-005, -8.27091571e-006,
          -1.58013407e-007, 0., 0., 0., 0., 2.83814700e-007,
          2.76883725e-007, -3.37247116e-007, -1.47716355e-006,
          1.27677211e-007, -1.61736330e-006, -8.28018472e-007,
          2.02415285e-005, 8.95799622e-006, -7.92300125e-005,
          -2.65657436e-005, -4.62869393e-005, -4.24515238e-005,
          -1.16648034e-005, -1.53914513e-007, -8.81661677e-008, 0., 0.,
          0., 0., -1.01845694e-006, -1.47951346e-006, 6.07315798e-008,
          -6.66780693e-007, -9.29139787e-007, -1.04703327e-006,
          -5.04619584e-006, 2.43035338e-005, -8.00400376e-005,
          -1.01208097e-004, -4.66554884e-005, -2.84291564e-005,
          6.96497154e-005, -1.63427940e-005, -1.16891044e-006,
          -6.39944346e-007, 0., 0., 0., 0., -6.08836217e-007,
          -8.33524041e-007, -6.07347147e-007, -1.42038652e-006,
          -4.91332663e-008, -7.77486832e-007, -5.03186402e-006,
          3.10770047e-005, -1.38654621e-004, -1.13660906e-004,
          -4.90299935e-005, -8.99529550e-005, 4.46136837e-005,
          -3.37606034e-005, -2.60000161e-006, 1.02921547e-008, 0., 0.,
          0., 0., -6.33486820e-007, -6.90117531e-007, -5.42783823e-007,
          -3.47428681e-007, -5.70325710e-007, 1.28223363e-007,
          -5.76664252e-006, 3.49419715e-005, -1.36681687e-004,
          -1.14560331e-004, -2.52866557e-005, -1.29747757e-004,
          -1.11921909e-004, -9.03391774e-005, -5.60169683e-005,
          -4.78527136e-006, 0., -8.85489797e-008, -8.85489797e-008, 0.,
          -2.33854223e-007, -1.50118467e-007, -1.92984729e-007,
          -4.72949779e-007, -8.91745174e-007, -3.91168754e-007,
          -5.25681799e-007, 3.66398817e-005, -2.91996857e-005,
          4.45056612e-005, 9.25582790e-005, -4.52743407e-005,
          -2.04971991e-004, -1.46085891e-004, -8.32415171e-005,
          -1.54604713e-005, -1.77097959e-007, 0., 0., -8.85489797e-008,
          -4.04929978e-007, -1.82061876e-006, -7.17850469e-007,
          -4.45624053e-008, -4.60908950e-007, -6.37853600e-006,
          -5.39658140e-006, 4.70232008e-005, 1.24095022e-004,
          1.22992031e-004, 1.73374196e-004, 2.20295697e-005,
          -1.96332228e-004, -2.41143760e-004, -9.49610185e-005,
          -1.72400960e-005, -2.65646918e-007, 0., -5.31293836e-007, 0.,
          -4.63313569e-007, 2.38541730e-007, -2.18520157e-007,
          -1.95237504e-007, -4.44108423e-007, -5.51500016e-005,
          -5.51455378e-005, 2.56319618e-005, 1.36924034e-004,
          1.81274823e-004, 2.12451021e-004, 5.47210257e-005,
          -1.74671659e-004, -2.36613312e-004, -9.05436391e-005,
          -2.72448506e-005, -8.05795662e-006, 0., 0., -1.77097959e-007,
          -2.50540808e-007, -5.26885742e-007, -8.90107060e-007,
          -1.73062517e-007, -3.45016730e-007, -5.47423006e-005,
          -5.72068966e-005, 8.41964811e-006, 1.29101667e-004,
          1.83590208e-004, 2.14518528e-004, 1.07023348e-004,
          -1.81776515e-004, -2.78724445e-004, -9.57239463e-005,
          -2.27724795e-005, -7.88085890e-006, 0., -8.85489797e-008, 0.,
          -6.56907730e-007, -3.80573994e-007, -4.96417396e-009,
          -1.21315145e-006, -1.85089129e-006, -5.80347769e-005,
          -7.11018729e-005, -4.90994025e-005, 9.13789481e-005,
          1.80253759e-004, 1.79351016e-004, 9.86273371e-005,
          -1.75149660e-004, -2.79442873e-004, -1.05138264e-004,
          -2.26169323e-005, -7.88085890e-006, -8.85489797e-008, 0., 0.,
          -2.61377181e-007, -5.63879212e-007, -7.10335541e-007,
          -3.74840852e-007, -3.17447416e-006, -2.27866367e-005,
          -1.40636344e-004, -1.09199536e-004, 5.49707947e-005,
          1.24223428e-004, 1.60199794e-004, 7.63048592e-005,
          -1.98084133e-004, -2.69558717e-004, -6.46632689e-005,
          -2.32339935e-005, -7.70376118e-006, -4.42744891e-007, 0., 0.,
          -8.00085786e-007, 3.81771457e-007, -7.33872582e-007,
          -6.17337378e-007, -1.16568317e-005, -3.73043549e-005,
          -1.88738835e-004, -1.09756853e-004, 5.01390878e-006,
          1.02950406e-004, 1.63323843e-004, 5.21078364e-005,
          -2.05564633e-004, -2.24255098e-004, -4.88981714e-005,
          -2.29230554e-005, -7.96940822e-006, 0., -2.65646918e-007,
          -1.77097959e-007, 0., -9.46156320e-007, -3.88025057e-007,
          -1.95167800e-007, -1.38238274e-005, -4.34457579e-005,
          -2.05856428e-004, -1.49652653e-004, 2.34447953e-006,
          8.26448158e-005, 1.23709193e-004, 1.57367340e-005,
          -1.78730348e-004, -2.02169467e-004, -2.06901514e-005,
          -1.55815214e-005, -2.56792032e-006, -3.54195919e-007, 0.,
          -1.77097959e-007, -1.57742249e-006, -4.67812839e-007,
          -1.13652197e-006, -7.77064258e-007, -2.95937434e-006,
          -3.51563322e-005, -1.41075725e-004, -1.81048847e-004,
          -4.19292119e-005, 5.89509291e-005, 1.08165463e-004,
          6.57108785e-006, -7.63042553e-005, -1.54398062e-004,
          -2.22566541e-005, -1.08505546e-005, -2.65646918e-007, 0.,
          -8.85489797e-008, -2.65646918e-007, -2.22812027e-008,
          -1.52897314e-006, -8.12660005e-007, -1.40991540e-006,
          -2.44870819e-007, -4.80181552e-006, -8.28687698e-005,
          -1.58275900e-004, -6.58408171e-005, 3.32629170e-005,
          1.22956975e-004, -7.61012852e-005, -1.52090681e-004,
          -8.21798967e-005, -1.61421121e-005, 2.30112505e-006, 0., 0.,
          -8.85489797e-008, 0., -1.03487241e-006, -1.77084280e-006,
          -8.91248106e-008, -1.61616936e-006, -2.66120281e-007,
          -4.47290658e-005, -5.64006441e-005, -9.31982649e-005,
          -6.42056184e-005, -1.76972098e-005, 3.62850369e-005,
          4.02926617e-006, -2.53681937e-005, -4.06650252e-005,
          -4.46800441e-005, -1.96892779e-006, -2.65646918e-007,
          -8.85489797e-008, 0., 0. ]
      - [ 8.66865889e-007, -5.15812189e-007, 0., -1.39444296e-006, 0.,
          -1.64409201e-007, -1.54743657e-006, 7.96009317e-006,
          7.45210200e-005, 1.57173621e-004, 1.53379064e-004,
          2.51710790e-005, -1.18499709e-004, -4.41728262e-005,
          -7.40077667e-007, 0., 0., 0., 0., 0., 0., 6.63460810e-007,
          2.26817960e-007, -1.56502551e-006, 5.62354430e-008,
          -1.24762255e-006, -1.75888566e-008, 6.51316514e-005,
          7.10703534e-005, 7.89304395e-005, 1.33586087e-004,
          -1.62164179e-005, -1.10577632e-004, -1.18156706e-004,
          2.74938429e-006, 0., 0., 0., 0., 0., -2.55647637e-006, 0., 0.,
          -1.64409201e-007, -5.15812189e-007, 0., -6.80221376e-007,
          6.03529661e-005, 1.36483271e-004, 7.11589892e-005,
          1.27890205e-004, -5.23878407e-005, -1.72332904e-004,
          -1.16320116e-004, -3.15538557e-007, 6.77538594e-007, 0., 0.,
          0., 0., 8.66865889e-007, -1.81998047e-007, 2.94818250e-007,
          -6.57636804e-007, 1.47648606e-007, -5.15812189e-007,
          -4.93227617e-007, 6.07781949e-005, 5.33869716e-005,
          7.06026622e-005, 1.34161965e-004, -3.58930556e-005,
          -1.79814640e-004, -3.99228775e-005, 1.47975391e-006,
          7.42737313e-007, 0., 0., 0., 0., -3.28818402e-007,
          -3.25928249e-006, 7.20045534e-007, -1.54743657e-006, 0.,
          6.84867814e-007, 2.77229390e-007, 3.38719183e-005,
          4.82972100e-005, 6.49560170e-005, 2.55531859e-006,
          -6.45117834e-005, -1.27761756e-004, -3.95291863e-005,
          -3.24064814e-007, -5.50989910e-007, 0., 0., 0., 0.,
          -1.03162438e-006, 5.89636500e-007, 0., 5.72047668e-007,
          -1.21362245e-006, -6.80221376e-007, -3.40001414e-008,
          7.64295237e-006, 3.88361468e-006, -5.01553877e-005,
          -1.83251013e-005, -6.68799476e-005, -7.36406728e-005,
          -3.19121391e-005, -1.89514458e-006, 4.38141257e-007, 0., 0.,
          0., 0., -8.62219451e-007, -1.03162438e-006, 1.47648606e-007,
          -5.33401078e-007, -1.64409201e-007, 2.94818250e-007,
          -1.25261840e-006, 7.18754336e-006, -6.67184067e-005,
          -9.93706708e-005, -4.53791072e-005, -7.63921853e-005,
          -7.58376773e-005, -3.85224230e-005, 2.19760136e-006,
          -7.09893243e-007, 0., 0., 0., 0., -1.75888566e-008,
          -5.15812189e-007, 0., -3.46407262e-007, -1.03162438e-006,
          5.89636500e-007, -4.15190625e-005, -1.07334592e-004,
          -3.16214209e-005, -1.02247010e-004, -2.12691657e-006,
          3.80510210e-006, -7.16784125e-005, -3.63473409e-005,
          3.28440528e-008, 7.34043113e-007, 0., 0., 0., 0.,
          -5.58227669e-007, 2.04379987e-007, -1.69841462e-006,
          -1.71184581e-006, -2.00478652e-007, -5.96331859e-007,
          -9.37728255e-005, -1.08585911e-004, -8.99270090e-005,
          -2.21351365e-005, 7.87294484e-005, 2.51636611e-005,
          -1.78161339e-004, -3.79950579e-005, -2.07762537e-006,
          -1.11352551e-006, 0., 0., 0., 0., -2.63595462e-006,
          -1.01730154e-006, 1.02555042e-007, -5.96080383e-007,
          -1.41896930e-006, -1.46735074e-005, -1.15050439e-004,
          -1.15837000e-004, -1.69252788e-004, 4.13137714e-005,
          1.73073655e-004, 3.76122698e-005, -2.19648908e-004,
          -4.12878362e-005, 4.75649557e-007, -2.29647995e-007, 0., 0.,
          0., 0., -1.88444660e-009, -2.59991589e-006, -1.21451421e-006,
          -2.04251165e-007, 1.98594208e-007, -3.81140308e-005,
          -1.61761680e-004, -1.40061951e-004, -1.06776846e-004,
          7.76954112e-005, 2.02726413e-004, 4.12987756e-005,
          -2.26983670e-004, -4.04761886e-005, -2.88190972e-006,
          -1.56181318e-006, 0., 0., 0., 0., -1.47422986e-006,
          -3.11071858e-007, -1.36549227e-006, -1.08629159e-007,
          1.49328045e-007, -3.84333180e-005, -1.84962599e-004,
          -2.24045885e-004, -7.48242310e-005, 1.94206252e-004,
          2.08717625e-004, 2.39098904e-006, -2.23506897e-004,
          -4.03187114e-005, 1.38925054e-006, -1.70004762e-006, 0., 0.,
          0., 0., -1.37845618e-007, 4.15730241e-008, -4.03907478e-007,
          -2.24777159e-006, -2.54177921e-005, -1.54787165e-004,
          -1.88003076e-004, -2.99425970e-004, -6.86028507e-005,
          2.09315767e-004, 2.13811669e-004, -3.83150336e-006,
          -2.19235430e-004, -4.33240857e-005, 4.51475984e-007,
          5.15111537e-007, 0., 0., 0., 0., -8.95431867e-007,
          -2.34144500e-006, 1.04206066e-007, -1.82889806e-007,
          -2.95054888e-005, -1.77795504e-004, -2.30222548e-004,
          -2.98130064e-004, -5.64080474e-005, 1.66880942e-004,
          1.70985630e-004, -2.07145185e-005, -2.22383882e-004,
          -1.36929302e-004, -2.94800134e-006, -3.94593712e-007, 0., 0.,
          0., 0., -4.99856299e-007, -1.75888566e-008, -6.44893419e-007,
          9.74892278e-010, -2.94021502e-005, -1.80943898e-004,
          -2.87552830e-004, -3.36611381e-004, -1.90113336e-004,
          -4.95840686e-005, 1.98140988e-005, -5.40691362e-005,
          -2.23619238e-004, -2.11290913e-004, -8.34722323e-006,
          -6.64265542e-007, 0., 0., 0., 0., -5.68578798e-007,
          -1.10467408e-006, -5.52236884e-007, -4.97181361e-007,
          -2.90890039e-005, -1.86838122e-004, -2.88539915e-004,
          -3.17811558e-004, -3.05296213e-004, -1.33824113e-004,
          -3.94086746e-005, -7.60570911e-005, -2.23417286e-004,
          -2.43144299e-004, -3.23513814e-005, -2.36903361e-007, 0., 0.,
          0., 0., -1.04600099e-006, -8.16287411e-007, -4.61111881e-007,
          -8.81591802e-007, -2.93530029e-005, -5.73737525e-005,
          -1.69335879e-004, -9.00806917e-005, -6.42146042e-005,
          9.01287203e-005, 4.45551268e-005, -7.38829549e-005,
          -2.23366107e-004, -2.39364745e-004, -5.41970330e-005,
          2.59640530e-007, 0., 0., 0., 0., -2.10036930e-007,
          -7.05354466e-007, -7.15399096e-007, -2.55739195e-007,
          -1.33395533e-005, -2.13304847e-005, -3.85694875e-005,
          1.94382465e-005, 2.77677227e-005, 1.94866778e-004,
          1.78860850e-004, -6.68209104e-005, -1.16991985e-004,
          -8.22167713e-005, -3.20727158e-005, -3.61427340e-007, 0., 0.,
          0., 0., -2.00478652e-007, -3.13099645e-006, -1.35672121e-006,
          -2.16709736e-006, 2.77229390e-007, -4.23693018e-006,
          -6.47948309e-006, 3.63933614e-005, 6.77182470e-005,
          2.34968800e-004, 2.53167207e-004, -3.57994140e-005,
          -2.24460222e-004, -8.20138666e-005, -4.20513516e-006,
          4.59814146e-006, 0., 0., 0., 0., -5.62355410e-007,
          -5.67785946e-007, -2.00833895e-007, -2.50481139e-006,
          1.44580653e-007, -2.10036930e-007, -2.63307447e-006,
          6.37143821e-005, 7.50271211e-005, 1.99647766e-004,
          3.15639918e-004, 5.34916144e-005, -1.50539112e-004,
          -6.60825972e-005, 8.85135933e-007, -1.69188843e-006, 0., 0.,
          0., 0. ]
      - [ 1.24912174e-006, -6.83829967e-007, -2.29559731e-007,
          -2.38158027e-005, -6.84479091e-005, -1.15938914e-004,
          -1.64904079e-004, -1.64602534e-004, -8.77771672e-005,
          -7.12565525e-005, -1.63257519e-005, -2.40407862e-005,
          -1.25577004e-004, -1.08779961e-004, -6.27131158e-005,
          -4.27271225e-005, -3.51134586e-005, -2.63006677e-005, 0.,
          -4.13099514e-007, -2.41215417e-007, 8.91185792e-008,
          1.44768364e-006, -3.94494282e-006, -1.86244199e-006,
          -7.47541199e-005, -1.79831870e-004, -7.69637409e-005,
          1.92985171e-005, 8.21262875e-005, 5.03493902e-005,
          1.89246032e-006, -9.57513184e-005, -1.01620783e-004,
          -4.52472632e-005, -3.64219268e-005, -3.51134586e-005,
          -2.64383689e-005, -2.75399657e-007, 0., -3.39634113e-007,
          -1.24762107e-006, -2.61558444e-006, -1.00910597e-006,
          -7.74073385e-007, -5.29397767e-006, -1.40492732e-004,
          -7.79477123e-005, 1.96090296e-005, 5.16864202e-005,
          9.76153824e-005, -1.62913584e-005, -1.02849823e-004,
          -1.11563953e-004, -6.74373086e-006, -9.47444187e-006,
          -1.79009785e-005, -2.57498687e-005, -2.75399657e-007, 0.,
          6.39469818e-007, -1.10701114e-006, 4.41511048e-007,
          -1.60598802e-006, 1.97421082e-006, -1.11745521e-005,
          -1.35791168e-004, -7.35576468e-005, 2.51489255e-005,
          4.87807592e-005, 1.50378706e-004, 2.65645995e-005,
          -5.21181391e-005, -6.24842432e-005, -7.19856246e-008,
          -2.74941129e-007, -1.25306851e-005, -2.67137675e-005, 0., 0.,
          -4.93576863e-007, -4.34237592e-007, 1.13001772e-006,
          -9.13955432e-007, -1.54538725e-006, -1.09676148e-005,
          -1.36289396e-004, -7.84203294e-005, 2.48165288e-005,
          9.74859358e-005, 1.22241225e-004, 6.49185677e-005,
          1.33156873e-005, -2.86558770e-005, -2.01375815e-006,
          -4.37851781e-007, -1.19798851e-005, -2.58875680e-005,
          -1.37699828e-007, -5.50799314e-007, -1.86179921e-006,
          3.35702936e-007, -1.36508413e-006, 6.49427420e-007,
          -4.41452272e-007, -1.23965920e-005, -1.34566493e-004,
          -1.10389177e-004, 3.35462864e-005, 1.15181851e-004,
          1.85443816e-004, 1.46116960e-004, 4.26499028e-005,
          -1.77365962e-006, -9.13535951e-006, -1.52959801e-005,
          -2.25827735e-005, -2.67137675e-005, 0., 0., -2.99682540e-007,
          -1.71256886e-006, 1.14268028e-006, -6.39625853e-007,
          -8.63268087e-006, -2.35210700e-005, -1.64511599e-004,
          -1.17613890e-004, -3.11248947e-008, 8.93664110e-005,
          8.36811087e-005, 5.52491765e-005, 3.66809727e-005,
          -6.70582995e-006, -1.91993167e-005, -3.59742480e-005,
          -3.51134586e-005, -2.60252691e-005, -1.37699828e-007, 0.,
          -7.37331504e-007, -7.73200384e-007, -1.46285132e-007,
          -5.15272404e-007, -2.00115301e-005, -4.55036388e-005,
          -1.80854375e-004, -1.23717618e-004, -6.34974494e-005,
          -1.02955155e-005, 1.23935024e-005, -1.13852220e-005,
          -2.05662582e-005, -5.65081173e-005, -1.76906233e-005,
          -3.04275964e-005, -3.47003588e-005, -2.68514668e-005, 0., 0.,
          -5.81872371e-007, -1.47578589e-007, -1.73835346e-007,
          -9.09479468e-007, -2.05798224e-005, -4.59249786e-005,
          -1.50405991e-004, -8.05947857e-005, -7.36954171e-005,
          -3.22308260e-005, -2.46975219e-006, -9.61958795e-005,
          -1.32203408e-004, -1.16631789e-004, -2.87816256e-005,
          -1.93137294e-005, -3.51134586e-005, -2.61629684e-005, 0., 0.,
          -7.36781431e-007, -1.01444311e-006, 1.54071688e-006,
          -2.15671662e-006, -2.02525498e-005, -4.59509865e-005,
          -1.27836203e-004, -5.07303193e-005, 1.25257011e-005,
          6.58030185e-005, 8.67648050e-005, -4.38953030e-005,
          -1.99530390e-004, -1.81516079e-004, -1.01165308e-004,
          -3.56650780e-005, -3.51134586e-005, -2.61629684e-005, 0., 0.,
          -4.28148837e-007, -1.51704785e-006, -1.29964042e-006,
          -2.25235526e-005, -1.57913582e-005, -1.71183237e-005,
          -9.07553404e-005, 4.60594174e-006, 1.05761181e-004,
          1.36957504e-004, 1.70512329e-004, 4.93323059e-005,
          -1.69319756e-004, -2.13260777e-004, -1.46848397e-004,
          -4.34336362e-005, -3.51134586e-005, -2.61629684e-005, 0., 0.,
          -5.49880838e-007, 3.59042502e-007, -1.83329746e-007,
          -2.78449056e-006, -1.65184326e-006, -1.75677014e-005,
          -4.69355437e-005, 9.28237787e-005, 1.50248365e-004,
          1.69859137e-004, 1.79232695e-004, 7.98513211e-005,
          -1.15242176e-004, -1.98757800e-004, -1.53117609e-004,
          -8.56502957e-005, -3.51134586e-005, -2.61629684e-005, 0., 0.,
          -4.45132144e-007, 2.61750614e-007, 3.92892635e-010,
          -1.49103528e-006, -1.01053831e-006, -1.52565117e-005,
          -3.19403698e-005, 9.29214002e-005, 1.60939308e-004,
          1.75042456e-004, 1.91130443e-004, 1.02285958e-004,
          -7.93387080e-005, -1.99617221e-004, -1.53723478e-004,
          -8.08842160e-005, -3.51134586e-005, -2.61629684e-005, 0., 0.,
          -7.83112000e-007, -6.20439039e-007, 1.26317792e-008,
          -8.70520921e-007, -6.49151559e-007, -1.64451940e-005,
          -5.05521493e-005, 1.36015879e-005, 1.25169827e-004,
          1.81802199e-004, 1.91424464e-004, 1.02217644e-004,
          -9.37530131e-005, -2.09011210e-004, -1.59552554e-004,
          -8.03544972e-005, -3.51134586e-005, -2.61629684e-005, 0., 0.,
          -5.16615046e-007, -2.24611813e-006, -3.75865881e-007,
          2.38092298e-007, -2.54360634e-006, -2.44194744e-005,
          -1.79304159e-004, -7.12325855e-005, 9.30446331e-005,
          1.77115449e-004, 1.66787417e-004, 8.40168650e-005,
          -1.47289640e-004, -2.23299416e-004, -1.89096812e-004,
          -8.99245497e-005, -3.51134586e-005, -2.61629684e-005, 0., 0.,
          -1.01484386e-006, 6.79905909e-008, -5.43705426e-007,
          -4.81695439e-009, -8.30595764e-006, -9.40163154e-005,
          -1.86001605e-004, -4.91619867e-005, 5.35762301e-005,
          8.44575188e-005, 1.31542052e-004, 1.96536130e-005,
          -1.82047559e-004, -2.40551541e-004, -1.39340118e-004,
          -8.83267421e-005, -3.51134586e-005, -2.61629684e-005, 0., 0.,
          -3.19478005e-007, -9.46474131e-007, -9.77180321e-007,
          -2.83276023e-007, -1.96893234e-005, -8.23260052e-005,
          -1.62610697e-004, -9.33609263e-005, -1.06729140e-005,
          3.98365373e-005, 6.15266763e-005, -3.21060179e-005,
